5.566588044166564941e-02
6.365510821342468262e-02
6.291861832141876221e-02
1.867239922285079956e-02
-1.514590531587600708e-02
-6.124848872423171997e-02
-1.611956954002380371e-02
6.057953834533691406e-02
-3.202676773071289062e-03
5.079016089439392090e-03
4.325099289417266846e-02
8.705094456672668457e-03
-6.543786823749542236e-02
-7.974931597709655762e-02
-7.775589078664779663e-02
-2.504298835992813110e-02
3.924082219600677490e-02
5.593682825565338135e-02
3.339882940053939819e-02
-7.562591135501861572e-02
-5.672754719853401184e-02
6.430128216743469238e-02
1.306734979152679443e-02
-9.702838957309722900e-03
-8.289881050586700439e-03
1.686991751194000244e-02
-3.666948527097702026e-02
-4.789442196488380432e-02
1.641772687435150146e-03
-6.867224723100662231e-02
3.513965755701065063e-02
-1.732327789068222046e-02
4.370480775833129883e-03
-8.004082739353179932e-02
1.567983627319335938e-02
-2.794449031352996826e-02
-7.754673808813095093e-02
-2.320137619972229004e-02
-1.781426370143890381e-03
1.184592396020889282e-02
6.039150059223175049e-02
1.415818184614181519e-02
7.822999358177185059e-02
5.677647888660430908e-03
-4.756278172135353088e-02
2.233081310987472534e-02
-6.260395795106887817e-02
5.269123613834381104e-02
-2.543952316045761108e-02
3.834060579538345337e-02
-6.251996755599975586e-02
9.168386459350585938e-04
-5.733376368880271912e-02
-1.607567071914672852e-02
-3.705288097262382507e-02
7.344648241996765137e-02
2.804584801197052002e-02
-5.639999359846115112e-02
2.585436403751373291e-02
-4.902455210685729980e-02
4.384182393550872803e-02
7.488167285919189453e-02
7.697571814060211182e-02
-4.907085001468658447e-02
7.892808318138122559e-02
-5.356837809085845947e-02
6.192551553249359131e-02
-4.958034679293632507e-02
-1.666300743818283081e-02
7.370756566524505615e-02
-7.098662853240966797e-02
-3.931012377142906189e-02
-3.346125036478042603e-02
3.641873598098754883e-02
7.372504472732543945e-02
1.215821504592895508e-02
-3.839654475450515747e-02
-3.212362527847290039e-03
8.555188775062561035e-03
-4.855064675211906433e-02
5.685347318649291992e-02
-1.744366437196731567e-02
-1.130016148090362549e-02
7.747486233711242676e-03
-2.184567600488662720e-02
-5.496389418840408325e-02
-6.360732018947601318e-02
-3.501899540424346924e-02
-4.581148549914360046e-02
1.456985622644424438e-02
-3.756727278232574463e-02
8.276410400867462158e-03
-3.778211772441864014e-03
-1.704388856887817383e-02
7.385790348052978516e-02
-2.070990577340126038e-02
-4.399001598358154297e-03
-1.712660491466522217e-02
2.600678801536560059e-02
7.236582040786743164e-02
-3.081615641713142395e-02
2.895575016736984253e-02
2.830080687999725342e-03
5.985051393508911133e-02
-6.779766082763671875e-02
-6.551139056682586670e-03
4.670228064060211182e-02
2.158317714929580688e-02
7.596467435359954834e-02
-4.851654171943664551e-03
-5.858661979436874390e-02
-2.785401791334152222e-02
-5.061543360352516174e-02
-4.855543375015258789e-04
6.312781572341918945e-02
-6.463752686977386475e-02
-4.218159243464469910e-02
4.656024277210235596e-03
5.242918431758880615e-02
1.972349733114242554e-02
4.873462021350860596e-03
-3.046016395092010498e-02
-8.596457540988922119e-03
3.326127678155899048e-02
-4.160311073064804077e-02
-7.854900509119033813e-02
6.307268142700195312e-02
-5.898468196392059326e-03
-1.538515090942382812e-03
3.965345025062561035e-02
-6.423605978488922119e-02
5.908644199371337891e-02
2.988417446613311768e-02
-1.699311286211013794e-02
-6.941446661949157715e-02
6.107805669307708740e-02
-3.512773290276527405e-02
-6.644286215305328369e-02
-8.144581317901611328e-02
-7.663184404373168945e-02
-7.346272468566894531e-03
4.154227674007415771e-02
-1.720860600471496582e-02
-3.216579183936119080e-02
-7.859074324369430542e-02
-7.636131346225738525e-02
-5.398488789796829224e-02
-6.800219416618347168e-03
-6.128325313329696655e-02
-4.856235161423683167e-02
7.881696522235870361e-02
-5.272545292973518372e-02
1.876495778560638428e-03
-3.620123863220214844e-02
-1.396834850311279297e-03
2.821400761604309082e-03
6.395718455314636230e-02
-3.647813200950622559e-02
-2.992488443851470947e-03
-3.470857068896293640e-02
-7.459222525358200073e-02
5.547510087490081787e-02
-4.603243991732597351e-02
2.350498735904693604e-02
-7.700919359922409058e-02
-7.486006617546081543e-02
-6.270794570446014404e-02
-6.521096080541610718e-02
-7.082540541887283325e-02
-4.231892898678779602e-02
1.052011549472808838e-02
1.800362765789031982e-02
-7.461029291152954102e-02
-4.879112541675567627e-02
-2.216095104813575745e-02
-2.967871725559234619e-03
2.709639817476272583e-02
-1.777630299329757690e-02
5.187669396400451660e-02
7.238647341728210449e-02
3.252192586660385132e-02
3.456088155508041382e-02
-2.557872980833053589e-02
2.482032775878906250e-02
-2.724917978048324585e-02
-5.335535854101181030e-02
1.419387012720108032e-02
-4.526402056217193604e-02
3.237767517566680908e-02
-6.882400810718536377e-02
2.238374948501586914e-02
3.070594370365142822e-02
-1.692898571491241455e-02
4.752540588378906250e-02
-7.652469724416732788e-02
1.326214522123336792e-02
-2.587811648845672607e-02
-8.215719461441040039e-02
6.563383340835571289e-02
3.535567969083786011e-02
1.534225046634674072e-02
-8.028902113437652588e-02
-4.649226367473602295e-02
-2.823825925588607788e-02
-6.349716335535049438e-02
-3.811986371874809265e-02
-5.207600444555282593e-02
6.164886057376861572e-02
-7.626964896917343140e-02
1.096235960721969604e-02
-5.840096250176429749e-02
5.340272188186645508e-02
-7.789065688848495483e-02
-7.612612098455429077e-02
-4.244346171617507935e-02
-7.718823850154876709e-03
5.970707535743713379e-02
2.344880998134613037e-02
1.822705566883087158e-02
-7.688792049884796143e-02
-7.541514933109283447e-02
-1.159438490867614746e-02
3.726488351821899414e-02
-4.169344529509544373e-02
5.413947999477386475e-02
-7.376061379909515381e-02
-7.484501600265502930e-02
-6.418196856975555420e-02
-5.295304954051971436e-02
-5.594268441200256348e-03
7.092058658599853516e-02
2.120284736156463623e-02
6.443943083286285400e-02
-8.136313408613204956e-02
4.526470601558685303e-02
2.990774810314178467e-02
-4.231971502304077148e-02
2.511366456747055054e-02
3.462673723697662354e-02
-6.571325659751892090e-02
3.431682288646697998e-02
5.846510827541351318e-02
-7.764387130737304688e-02
8.160102367401123047e-02
-1.162284612655639648e-02
-1.882957667112350464e-02
2.931989729404449463e-02
-3.203939273953437805e-02
3.447692841291427612e-02
5.809837579727172852e-02
-6.459704786539077759e-02
-4.265575483441352844e-02
-1.850650459527969360e-02
-1.967497169971466064e-03
6.422322988510131836e-02
-5.699104815721511841e-02
8.110885322093963623e-02
5.926308035850524902e-02
4.041764885187149048e-02
-3.773279488086700439e-02
-7.801070809364318848e-02
-5.596774816513061523e-02
-5.431289225816726685e-02
2.457385510206222534e-02
6.242804229259490967e-02
-6.940942257642745972e-02
3.171219676733016968e-02
7.826931774616241455e-02
6.783239543437957764e-02
-7.360730320215225220e-02
2.411939203739166260e-03
2.244401723146438599e-02
-4.652575403451919556e-02
-7.164801657199859619e-02
-7.340483367443084717e-02
6.845225393772125244e-02
8.190490305423736572e-03
4.715876281261444092e-02
-7.868588715791702271e-02
-3.288565948605537415e-02
2.073749899864196777e-02
3.216487169265747070e-02
-7.152945548295974731e-02
-2.020673081278800964e-02
5.318431556224822998e-02
1.187369227409362793e-03
-6.714671850204467773e-02
5.636520683765411377e-02
-5.404476076364517212e-02
5.754810571670532227e-02
2.010315656661987305e-02
5.006442964076995850e-02
1.591778546571731567e-02
3.635841608047485352e-02
-4.828573390841484070e-02
-1.386910676956176758e-02
-1.973313838243484497e-02
-2.418517693877220154e-02
5.302983522415161133e-02
-2.469773963093757629e-02
5.829828977584838867e-02
-1.243658363819122314e-02
-1.682682335376739502e-02
2.425761520862579346e-02
-2.096971124410629272e-02
7.245209813117980957e-02
-3.091804310679435730e-02
-4.691413789987564087e-02
2.085253596305847168e-03
-1.702614873647689819e-02
-2.369111403822898865e-02
4.895171523094177246e-02
4.757873713970184326e-02
-7.349691540002822876e-02
-8.075758814811706543e-02
6.634175777435302734e-02
1.928494125604629517e-02
-1.193829625844955444e-02
-8.580118417739868164e-03
-4.831166192889213562e-02
2.291450649499893188e-02
-5.168542265892028809e-03
1.575350016355514526e-02
4.364116489887237549e-02
-1.614540815353393555e-05
-4.403180629014968872e-02
-6.961952894926071167e-02
-2.041479945182800293e-02
5.343858897686004639e-02
3.946810215711593628e-02
6.137324869632720947e-02
1.602841168642044067e-02
-3.162078186869621277e-02
-6.577543914318084717e-02
-3.275187313556671143e-02
-4.442899301648139954e-02
-6.313468515872955322e-02
4.213586449623107910e-02
7.230798900127410889e-02
-1.419791579246520996e-02
4.316224157810211182e-02
-5.571505427360534668e-02
6.691232323646545410e-02
-2.596521005034446716e-02
4.943686723709106445e-02
7.208700478076934814e-02
7.506819069385528564e-02
1.394341140985488892e-02
-8.049956709146499634e-02
-6.666322797536849976e-02
6.580592691898345947e-02
-1.867265999317169189e-02
8.097173273563385010e-02
1.963997632265090942e-02
-5.164356157183647156e-02
-4.183744266629219055e-02
7.842928171157836914e-02
5.186076462268829346e-02
5.083528161048889160e-02
5.309005081653594971e-02
4.612982273101806641e-02
5.087213218212127686e-02
-3.831901773810386658e-02
-5.850632488727569580e-02
2.120683342218399048e-02
-5.506794154644012451e-02
-6.104183197021484375e-02
-4.689394682645797729e-02
5.738897621631622314e-02
1.952253282070159912e-03
-5.543950945138931274e-02
-4.295875504612922668e-02
7.159762084484100342e-02
-7.272120565176010132e-02
-2.838404476642608643e-02
-7.817051559686660767e-02
-4.502935335040092468e-02
3.957179188728332520e-02
-3.734669089317321777e-02
1.357708126306533813e-02
-6.681296229362487793e-02
-2.752071246504783630e-02
-3.870954364538192749e-02
-4.656546935439109802e-02
-6.004326418042182922e-02
-6.783877313137054443e-02
-7.303715497255325317e-02
1.404772698879241943e-02
-4.582468420267105103e-02
1.185269653797149658e-02
-2.276235446333885193e-02
6.872901320457458496e-02
-5.526695400476455688e-02
7.074007391929626465e-02
7.627351582050323486e-02
-3.061751648783683777e-02
-2.214413881301879883e-02
6.024459004402160645e-02
-3.278182819485664368e-02
-5.055652558803558350e-02
-2.857174351811408997e-02
-5.349212884902954102e-02
5.944402515888214111e-02
7.509618997573852539e-03
9.969957172870635986e-03
-2.821967750787734985e-02
2.772227674722671509e-02
2.895134687423706055e-02
6.564262509346008301e-02
-6.675898283720016479e-02
-2.977608516812324524e-02
7.334291934967041016e-03
-8.120253682136535645e-03
-6.548558175563812256e-02
-2.945094928145408630e-02
2.524214237928390503e-02
-6.292925029993057251e-02
6.076027452945709229e-02
-1.763973385095596313e-02
-5.044759064912796021e-02
-3.480141982436180115e-02
4.321841895580291748e-02
3.661036491394042969e-02
4.565493762493133545e-02
8.194100856781005859e-02
-2.676521614193916321e-02
-4.653227701783180237e-02
-4.887275770306587219e-02
6.373168528079986572e-02
-1.437561959028244019e-02
3.544929623603820801e-02
-3.660602495074272156e-02
-8.566305041313171387e-03
2.473156154155731201e-02
7.851304113864898682e-02
1.944272965192794800e-02
2.438019961118698120e-02
-7.846929132938385010e-03
6.583704054355621338e-02
1.040371507406234741e-02
-3.354618325829505920e-02
-7.182558625936508179e-02
4.007031023502349854e-02
-5.083748698234558105e-02
-5.566801130771636963e-02
-2.877344936132431030e-02
3.698315471410751343e-02
6.976430118083953857e-02
7.489216327667236328e-02
-1.257820427417755127e-02
-5.160759761929512024e-02
7.520747184753417969e-02
6.627149879932403564e-02
-6.185609847307205200e-02
2.812951803207397461e-02
-3.361373394727706909e-02
8.194620907306671143e-02
8.056181669235229492e-02
-6.840077042579650879e-02
5.182847380638122559e-02
-4.477911442518234253e-02
-1.073187589645385742e-02
1.708596199750900269e-02
-1.220116764307022095e-02
1.892441511154174805e-02
4.050582647323608398e-04
4.686625301837921143e-02
2.909749001264572144e-02
3.267371654510498047e-02
5.895139276981353760e-02
9.797476232051849365e-03
3.002524375915527344e-02
4.153497517108917236e-03
5.767084658145904541e-02
7.956050336360931396e-02
1.168432831764221191e-02
6.255295872688293457e-02
3.986106812953948975e-02
5.955635011196136475e-02
-2.714894339442253113e-02
-6.431195884943008423e-02
-3.608539700508117676e-03
-1.171671599149703979e-02
6.671063601970672607e-02
-2.840136736631393433e-02
5.619530379772186279e-02
-9.322077035903930664e-03
-5.660386011004447937e-02
-7.636535912752151489e-02
1.674354076385498047e-02
6.871324777603149414e-02
-6.018845736980438232e-02
-6.893515586853027344e-02
-1.898522675037384033e-02
8.158318698406219482e-03
-2.020360901951789856e-02
-4.391051456332206726e-02
6.539620459079742432e-02
-5.245499312877655029e-03
-2.454788610339164734e-02
5.226910114288330078e-02
-6.294892728328704834e-02
1.852153241634368896e-02
-3.472522646188735962e-02
4.231337457895278931e-02
-6.037720292806625366e-02
5.211241543292999268e-02
-6.307300925254821777e-02
3.971129655838012695e-02
-3.883548825979232788e-02
-2.575886622071266174e-02
-5.830528587102890015e-02
7.334536314010620117e-02
1.479032635688781738e-02
2.750334888696670532e-02
4.500524699687957764e-02
-3.829271718859672546e-02
2.513467520475387573e-02
-2.523114159703254700e-02
-2.134279534220695496e-02
4.643447697162628174e-02
5.856424570083618164e-02
-6.980974972248077393e-02
1.836826652288436890e-02
1.243088394403457642e-02
1.502274721860885620e-02
-2.355181425809860229e-02
-7.871210575103759766e-03
6.872686743736267090e-02
-4.305435344576835632e-02
-2.870766818523406982e-02
3.978373110294342041e-02
8.068768680095672607e-02
7.607869803905487061e-02
-1.560941338539123535e-03
-4.337624832987785339e-02
-1.209425926208496094e-02
-7.667001336812973022e-02
5.506829917430877686e-02
-5.106038600206375122e-02
-2.468391135334968567e-02
-5.953804776072502136e-02
5.976457893848419189e-02
3.629557788372039795e-02
-3.091804310679435730e-02
-4.226395115256309509e-02
-6.547122448682785034e-02
4.047659039497375488e-02
-1.042410731315612793e-04
6.992028653621673584e-02
-1.949755102396011353e-02
-2.550259605050086975e-02
2.949977666139602661e-02
5.828422307968139648e-02
8.121633529663085938e-02
-4.613302648067474365e-03
-6.992144882678985596e-02
3.880292177200317383e-03
6.479817628860473633e-02
-3.867650404572486877e-02
7.393433153629302979e-02
-7.198641449213027954e-02
1.331114768981933594e-02
5.771286785602569580e-03
-7.623362541198730469e-02
3.576492518186569214e-02
2.711571007966995239e-02
-1.264303922653198242e-02
3.446186333894729614e-02
-3.880032896995544434e-02
-7.642827928066253662e-02
-6.142184883356094360e-02
1.644032448530197144e-02
4.972450435161590576e-02
5.487360060214996338e-02
2.556366473436355591e-02
6.897801160812377930e-02
-7.431442290544509888e-02
7.260727882385253906e-02
4.041723161935806274e-02
-3.086231648921966553e-02
-7.459025830030441284e-02
-1.692093163728713989e-02
-5.004604533314704895e-02
1.420785486698150635e-02
1.471906900405883789e-03
-4.437336325645446777e-02
-2.840772271156311035e-03
6.403255462646484375e-02
-6.942076981067657471e-02
-7.575692236423492432e-02
-3.938378021121025085e-02
-5.107820034027099609e-02
1.176662743091583252e-02
-2.666360512375831604e-02
7.342790067195892334e-02
6.916484236717224121e-02
4.794840514659881592e-02
-8.279606699943542480e-03
1.779231429100036621e-02
2.594572305679321289e-02
-4.466453939676284790e-02
2.858752012252807617e-02
-2.441999688744544983e-02
4.152550548315048218e-02
4.864870011806488037e-02
-6.483121961355209351e-02
1.472733914852142334e-03
-2.218147739768028259e-02
3.900036215782165527e-03
-7.377059012651443481e-02
1.842869818210601807e-02
-1.593092083930969238e-02
-5.580369755625724792e-02
-4.854642227292060852e-02
-5.291894078254699707e-03
-7.678953558206558228e-02
7.832780480384826660e-02
-3.827944397926330566e-03
-7.741967588663101196e-02
-7.845430821180343628e-02
-4.140358418226242065e-02
-7.449214905500411987e-02
-7.915763556957244873e-02
-3.552660346031188965e-04
1.152673363685607910e-02
1.763800531625747681e-02
8.406594395637512207e-03
7.167731225490570068e-02
-3.810144215822219849e-02
9.015202522277832031e-07
-2.353930100798606873e-02
6.806017458438873291e-02
-6.462260335683822632e-02
3.859088569879531860e-02
6.831742823123931885e-02
4.444663226604461670e-02
-1.122140139341354370e-02
-7.735214382410049438e-02
-5.227849632501602173e-02
1.675015687942504883e-02
6.621560454368591309e-02
5.422776937484741211e-02
8.151881396770477295e-02
-4.108430072665214539e-02
2.913606166839599609e-02
-2.297393977642059326e-02
-2.814030274748802185e-02
4.033634811639785767e-02
3.039634227752685547e-02
-5.179555341601371765e-02
7.828491926193237305e-02
-4.574988782405853271e-02
6.573458015918731689e-02
-3.834421932697296143e-02
2.778913825750350952e-02
3.067552298307418823e-02
3.810381889343261719e-02
5.563196539878845215e-02
-7.500490546226501465e-02
4.485131800174713135e-02
-1.854991167783737183e-02
-1.426666975021362305e-03
-6.671167910099029541e-03
-9.647823870182037354e-03
6.562979519367218018e-02
-3.676282614469528198e-02
6.502622365951538086e-02
-8.088272809982299805e-02
-3.640335425734519958e-02
-7.363034784793853760e-02
6.202356517314910889e-02
-1.885749399662017822e-03
-4.465373605489730835e-02
-6.776069104671478271e-02
8.191290497779846191e-02
3.499581664800643921e-02
-7.654267549514770508e-02
-6.729426980018615723e-02
6.886389851570129395e-02
-4.652396589517593384e-02
5.471813678741455078e-02
-7.961376756429672241e-02
-7.030899077653884888e-02
1.030528545379638672e-02
-4.728496447205543518e-02
-4.599238932132720947e-02
-7.607133686542510986e-02
-5.871009081602096558e-02
2.416559308767318726e-02
5.085423588752746582e-02
6.149162352085113525e-02
3.008984774351119995e-02
8.070558309555053711e-03
7.071705162525177002e-02
-5.378294736146926880e-02
4.173482954502105713e-02
-4.697585478425025940e-02
2.556820213794708252e-02
-2.250849828124046326e-02
-3.797695040702819824e-03
-2.197749167680740356e-02
3.876878321170806885e-02
8.238284289836883545e-02
6.000526249408721924e-02
4.297502338886260986e-02
-2.159541472792625427e-02
7.861776649951934814e-02
-6.935982406139373779e-02
-3.926464915275573730e-02
6.474481523036956787e-02
-6.994143128395080566e-03
6.787316501140594482e-02
4.057379812002182007e-02
2.632281184196472168e-02
-6.360806524753570557e-02
4.357805848121643066e-02
2.435281872749328613e-02
4.313240945339202881e-02
-2.889699861407279968e-02
-1.207435876131057739e-02
6.601893901824951172e-02
-7.764534652233123779e-02
-4.126282781362533569e-02
7.043047249317169189e-02
-6.070003658533096313e-02
-6.813287734985351562e-02
3.481208533048629761e-02
-4.452863708138465881e-02
-1.304455101490020752e-03
6.236821413040161133e-02
-4.227025806903839111e-02
-5.997209995985031128e-02
-7.807853072881698608e-02
-6.173472851514816284e-02
-4.899019747972488403e-02
-5.805109441280364990e-02
-3.563420847058296204e-02
5.668848752975463867e-03
5.331727862358093262e-02
5.493946373462677002e-02
-5.138253793120384216e-02
-3.337383270263671875e-03
5.389133095741271973e-02
5.175657570362091064e-03
7.854229211807250977e-02
-4.700794816017150879e-02
-2.006782218813896179e-02
-6.898827105760574341e-02
7.298095524311065674e-02
-2.187199518084526062e-02
-2.018146961927413940e-02
-5.677272379398345947e-02
-6.322661042213439941e-02
-6.403981894254684448e-02
-8.089846372604370117e-02
1.409710943698883057e-02
-7.506138086318969727e-02
2.035287022590637207e-02
-3.337482735514640808e-02
-3.795377165079116821e-02
5.796241760253906250e-02
2.196378260850906372e-02
1.582261919975280762e-02
-8.105069398880004883e-03
-1.985867321491241455e-02
2.448689937591552734e-02
-5.948646739125251770e-02
7.025887072086334229e-02
6.817251443862915039e-03
-5.639256909489631653e-02
1.668471097946166992e-02
6.450554728507995605e-02
6.578592956066131592e-02
1.512284576892852783e-02
-3.161374852061271667e-02
-2.020083367824554443e-03
-6.224116683006286621e-02
-2.567328512668609619e-03
5.383500456809997559e-02
4.257585108280181885e-02
-3.131247684359550476e-02
6.881631910800933838e-02
-6.428746879100799561e-02
7.979282736778259277e-02
1.924118399620056152e-02
8.149594068527221680e-03
3.907021135091781616e-02
-1.839662343263626099e-02
-3.426935151219367981e-02
4.713846743106842041e-02
3.583824634552001953e-02
-6.947357207536697388e-02
8.059330284595489502e-02
-5.022492632269859314e-02
-6.853320449590682983e-02
1.390304416418075562e-02
-6.632047146558761597e-02
-3.584805130958557129e-02
1.285884529352188110e-02
-8.045030385255813599e-02
-5.305919423699378967e-02
4.937459528446197510e-02
-7.778046280145645142e-02
7.592049241065979004e-02
3.694005310535430908e-03
2.769035845994949341e-02
1.903799921274185181e-02
-5.500282347202301025e-02
-6.048887968063354492e-03
7.726418972015380859e-02
-2.509398013353347778e-02
1.239128410816192627e-02
-7.103806734085083008e-02
3.344864398241043091e-02
1.104116439819335938e-02
-4.022564366459846497e-02
3.379597514867782593e-02
-6.269428879022598267e-02
3.044256567955017090e-02
7.737088203430175781e-02
-6.178858876228332520e-02
6.478498876094818115e-02
-5.231890082359313965e-02
-2.650685980916023254e-02
-1.685080677270889282e-02
-7.123156636953353882e-02
5.213153362274169922e-02
-7.528459280729293823e-02
-1.902952790260314941e-04
3.996369242668151855e-02
7.738636434078216553e-02
-4.699528217315673828e-02
-4.547075182199478149e-02
2.559907734394073486e-02
7.112888991832733154e-02
-2.855985984206199646e-02
8.377566933631896973e-03
4.914090037345886230e-02
-7.708549499511718750e-03
-4.459378868341445923e-02
3.751103579998016357e-02
-4.329620674252510071e-02
6.345142424106597900e-02
1.004565507173538208e-02
2.133423089981079102e-02
7.796943187713623047e-03
2.696664631366729736e-02
2.884656190872192383e-02
-4.595346003770828247e-02
1.768080890178680420e-02
-9.625650942325592041e-03
-4.482915997505187988e-02
-3.544373810291290283e-02
-8.012361824512481689e-02
-1.797328144311904907e-02
-4.266202449798583984e-05
-5.548797547817230225e-03
-4.833532869815826416e-02
5.074259638786315918e-02
8.306182920932769775e-03
7.862345874309539795e-02
-1.014351099729537964e-02
-1.654372364282608032e-02
-2.486076951026916504e-02
7.527421414852142334e-02
-3.442582115530967712e-02
4.315412044525146484e-02
5.757868289947509766e-03
4.923194646835327148e-03
6.357681751251220703e-02
-7.979946583509445190e-02
-7.163497805595397949e-02
-5.778775364160537720e-02
-6.862832605838775635e-02
4.965232312679290771e-02
-6.063614413142204285e-02
-4.413141310214996338e-02
7.281520962715148926e-02
1.500436663627624512e-02
5.495476722717285156e-02
5.353040993213653564e-03
3.158906102180480957e-02
6.854033470153808594e-02
-1.491968333721160889e-02
-3.341412916779518127e-02
2.117457985877990723e-02
-4.100464284420013428e-03
-1.593202352523803711e-02
4.230378568172454834e-02
-8.016716688871383667e-02
6.893457472324371338e-02
-6.461918354034423828e-02
7.104489207267761230e-02
-1.237474381923675537e-03
-1.117229461669921875e-02
2.633057534694671631e-02
7.679951190948486328e-02
2.099322527647018433e-02
2.295351028442382812e-02
-6.601126492023468018e-02
1.176966726779937744e-02
-2.497972175478935242e-02
-2.770536765456199646e-02
-5.895490944385528564e-02
3.230475634336471558e-02
-5.002881959080696106e-02
-7.640674710273742676e-02
-3.082364797592163086e-03
4.829017817974090576e-02
-1.834712922573089600e-02
3.792963922023773193e-03
4.735644161701202393e-02
1.276309043169021606e-02
-6.783749163150787354e-02
-7.857848703861236572e-02
-8.131621032953262329e-02
7.219155132770538330e-02
-3.296597301959991455e-02
-5.296282842755317688e-02
-7.606010138988494873e-02
-3.112033754587173462e-02
4.373279213905334473e-02
2.889138460159301758e-02
-5.049975961446762085e-02
2.073159068822860718e-02
-5.760606378316879272e-02
-5.933123454451560974e-02
4.515264928340911865e-02
-2.368514612317085266e-02
-1.329468935728073120e-02
-2.655339241027832031e-02
8.060212433338165283e-02
-3.866240009665489197e-02
-2.662807330489158630e-02
8.660979568958282471e-03
3.664200752973556519e-02
-6.320795416831970215e-02
-3.685127571225166321e-02
-1.034361124038696289e-02
4.546143114566802979e-03
-6.011171638965606689e-02
-5.436249077320098877e-02
-4.090736433863639832e-02
7.389737665653228760e-02
-7.756368815898895264e-02
-2.804472669959068298e-02
2.178395539522171021e-02
7.510820031166076660e-02
-5.831427872180938721e-03
-5.225962027907371521e-02
2.377716451883316040e-02
-1.158250123262405396e-02
7.085147500038146973e-02
-7.422567903995513916e-02
-3.565594926476478577e-02
-3.936934471130371094e-02
-4.435305297374725342e-02
-5.605152249336242676e-02
2.168651670217514038e-02
-4.637278616428375244e-03
6.971676647663116455e-02
5.734094977378845215e-02
2.113998681306838989e-02
-2.280845493078231812e-02
-5.290022864937782288e-02
-4.834621027112007141e-02
-5.376159772276878357e-02
5.433537065982818604e-02
7.418775558471679688e-02
6.575964391231536865e-02
-9.870998561382293701e-03
4.437191784381866455e-02
-3.854048252105712891e-02
-5.057202279567718506e-02
-1.487065851688385010e-02
-7.029457390308380127e-02
-1.826867461204528809e-02
5.976292490959167480e-02
6.947615742683410645e-02
2.267944812774658203e-02
8.035025000572204590e-02
-2.813590317964553833e-02
-5.193210393190383911e-02
-7.214769721031188965e-02
4.268962144851684570e-02
-4.457436129450798035e-02
-6.805267930030822754e-02
-7.870855927467346191e-02
5.567376315593719482e-02
-1.393137127161026001e-02
6.806091964244842529e-02
-5.997364968061447144e-02
-2.018777653574943542e-02
-3.678074106574058533e-02
-6.689377129077911377e-03
4.373048245906829834e-02
-6.052058935165405273e-02
-7.981947809457778931e-02
5.621895194053649902e-02
-6.353452056646347046e-02
5.471347272396087646e-02
-7.798297703266143799e-02
4.969240725040435791e-02
6.520399451255798340e-02
1.039707660675048828e-02
-5.842142924666404724e-02
2.879554778337478638e-02
-5.695449188351631165e-02
7.486453652381896973e-02
1.453043520450592041e-02
1.990822702646255493e-02
7.784023880958557129e-02
8.157758414745330811e-02
7.442377507686614990e-02
1.613683253526687622e-02
3.799309581518173218e-02
2.339226007461547852e-02
6.849755346775054932e-02
-7.158413529396057129e-03
-5.301364511251449585e-02
7.807172834873199463e-03
5.853039026260375977e-02
-3.617116436362266541e-02
1.727382093667984009e-02
-9.399138391017913818e-03
1.368851214647293091e-02
1.712618768215179443e-02
4.323786497116088867e-02
6.215524673461914062e-02
-2.331842482089996338e-02
-2.556399628520011902e-02
-6.427499651908874512e-02
4.524886608123779297e-03
-7.501348853111267090e-02
-1.456603407859802246e-03
-8.228853344917297363e-03
7.330943644046783447e-02
-6.960309296846389771e-02
-3.369092941284179688e-02
-3.427591174840927124e-02
-3.968173265457153320e-02
-4.547264054417610168e-02
-2.984827011823654175e-02
3.282223641872406006e-02
-7.847695797681808472e-02
-1.524364203214645386e-02
8.029241859912872314e-02
1.521225273609161377e-02
-8.005730807781219482e-02
-7.537712156772613525e-02
-2.348807454109191895e-02
9.056694805622100830e-03
-3.539178147912025452e-02
-1.116225868463516235e-02
3.674189001321792603e-02
8.111238479614257812e-02
-4.229232668876647949e-03
2.343393862247467041e-02
5.849806964397430420e-02
-3.341458365321159363e-02
2.952857315540313721e-02
-6.567887961864471436e-02
3.232177346944808960e-02
4.218147695064544678e-02
7.307575643062591553e-02
3.814689815044403076e-03
-2.102474868297576904e-02
5.730514228343963623e-02
-7.777474820613861084e-03
5.535051226615905762e-02
-1.404553651809692383e-03
3.301531821489334106e-02
-2.900232002139091492e-02
5.879959464073181152e-02
4.173210263252258301e-02
-6.106950342655181885e-03
-1.313440501689910889e-02
-4.996619746088981628e-02
-1.064637303352355957e-02
-4.079722985625267029e-02
6.509348750114440918e-02
-3.855965286493301392e-02
7.276444137096405029e-02
-2.682022750377655029e-03
-4.250384122133255005e-02
3.285275399684906006e-02
-4.671029374003410339e-02
3.791546821594238281e-02
-6.373141705989837646e-02
2.999625355005264282e-02
3.771387785673141479e-02
-2.400556579232215881e-02
-6.391739100217819214e-02
6.658798456192016602e-02
-4.132594168186187744e-02
-1.725753396749496460e-02
2.971057593822479248e-02
6.485520303249359131e-02
7.350306212902069092e-02
7.732075452804565430e-02
7.140046358108520508e-02
-1.744103431701660156e-02
-6.695943325757980347e-02
-5.789566785097122192e-02
-2.884430065751075745e-02
8.091743290424346924e-02
7.280883193016052246e-02
-4.591861367225646973e-02
-1.034651696681976318e-02
-2.338282763957977295e-03
7.338532805442810059e-02
3.966093063354492188e-02
3.264111280441284180e-02
3.459551185369491577e-02
-8.077813684940338135e-02
-1.247042417526245117e-02
6.336499750614166260e-02
4.106998443603515625e-02
-6.938038766384124756e-02
5.174799263477325439e-02
7.129679620265960693e-02
7.544070482254028320e-03
5.673724412918090820e-02
-6.830904632806777954e-02
1.126671582460403442e-02
-7.573398202657699585e-02
5.243442952632904053e-02
-7.169594615697860718e-02
-2.388681098818778992e-02
5.251109600067138672e-02
7.424627244472503662e-02
-5.915997549891471863e-02
-4.067737609148025513e-02
-7.296196371316909790e-02
1.052855700254440308e-02
-6.588490307331085205e-02
-1.659718900918960571e-02
5.457249283790588379e-02
-6.855101883411407471e-02
2.921885251998901367e-02
-3.271135315299034119e-02
-7.600663602352142334e-02
-8.965633809566497803e-03
-7.461893558502197266e-02
5.682216584682464600e-02
6.402532756328582764e-02
9.296424686908721924e-03
-7.576639205217361450e-02
-5.951117724180221558e-02
1.918628811836242676e-03
-5.589489638805389404e-02
4.523552954196929932e-03
-5.604800581932067871e-02
-7.580161094665527344e-02
-6.254719197750091553e-02
-1.151813566684722900e-02
-3.179905191063880920e-02
-4.232755303382873535e-02
-3.962484747171401978e-02
5.112902820110321045e-02
-5.189950019121170044e-02
4.788495600223541260e-02
5.211286246776580811e-03
-2.293775975704193115e-02
-8.011014014482498169e-02
7.325270771980285645e-02
-7.563865929841995239e-02
-1.252996176481246948e-02
-4.602030292153358459e-02
3.782894462347030640e-02
-5.360440164804458618e-02
5.026067793369293213e-02
4.552942514419555664e-02
-7.930833101272583008e-02
6.265975534915924072e-03
-7.826364040374755859e-02
-1.376209408044815063e-02
-6.654143333435058594e-03
4.373829066753387451e-02
-5.411158129572868347e-02
-3.895295038819313049e-02
-4.009457305073738098e-02
4.925549030303955078e-03
-3.488348424434661865e-02
5.550774931907653809e-02
3.184279799461364746e-02
7.328662276268005371e-02
4.073421657085418701e-02
-5.847350135445594788e-02
-7.400201261043548584e-02
4.241608083248138428e-03
-1.997518911957740784e-02
2.395711094141006470e-02
-7.048447430133819580e-02
6.938555836677551270e-02
4.681472480297088623e-02
-6.313274055719375610e-02
1.906911283731460571e-02
1.553462445735931396e-02
-2.491855621337890625e-02
-5.103261396288871765e-02
-7.265958935022354126e-02
-5.520651489496231079e-02
-4.675254225730895996e-02
-4.626710712909698486e-02
3.393482416868209839e-02
-2.667110785841941833e-02
-5.427722632884979248e-02
3.431356698274612427e-02
-7.027785480022430420e-02
4.069450497627258301e-02
-3.551602363586425781e-03
2.492821961641311646e-02
-4.994160681962966919e-02
2.436454594135284424e-02
-2.311168983578681946e-02
7.269686460494995117e-02
3.997534513473510742e-02
-6.100820749998092651e-02
2.576776593923568726e-02
-7.728752493858337402e-02
-6.069550290703773499e-02
3.554214537143707275e-02
3.912076354026794434e-03
-1.239727437496185303e-02
-5.810049548745155334e-02
1.223271340131759644e-02
-5.270930752158164978e-02
-5.956587940454483032e-02
-8.626058697700500488e-04
7.437233626842498779e-02
7.316318154335021973e-02
5.905613303184509277e-03
-2.253065630793571472e-02
-1.875839382410049438e-02
3.743674606084823608e-02
-6.860020011663436890e-02
2.170026302337646484e-02
5.571618676185607910e-03
-4.211165010929107666e-03
-4.194549471139907837e-02
2.365754544734954834e-02
7.681408524513244629e-02
-4.176663234829902649e-02
-4.946671798825263977e-02
7.215122878551483154e-02
-3.584630414843559265e-02
6.870272755622863770e-02
-7.460180670022964478e-02
-1.724898815155029297e-03
4.685668647289276123e-02
-7.199690490961074829e-02
9.580411016941070557e-03
-8.165716379880905151e-02
7.848574221134185791e-02
-8.056503534317016602e-02
6.424358487129211426e-02
3.260300308465957642e-02
4.928839206695556641e-02
-1.981148868799209595e-02
-1.113361865282058716e-02
8.081141114234924316e-02
6.807528436183929443e-03
-4.603311046957969666e-02
3.542342782020568848e-02
-4.522389173507690430e-02
-7.774683833122253418e-02
-3.411751613020896912e-02
-4.089561849832534790e-02
-6.046896800398826599e-02
-2.370034903287887573e-02
5.574013292789459229e-02
-5.811996012926101685e-02
4.764099419116973877e-02
1.318341493606567383e-02
-6.290208548307418823e-02
3.283119201660156250e-02
-3.694243729114532471e-03
5.837401747703552246e-02
-4.656529426574707031e-02
2.223838120698928833e-02
-5.469827353954315186e-02
3.751619905233383179e-02
-3.176080808043479919e-02
-5.600536242127418518e-02
8.132520318031311035e-02
2.322450280189514160e-03
-1.097290217876434326e-02
5.260024964809417725e-02
-1.333766430616378784e-02
-4.226899892091751099e-02
-1.175212860107421875e-02
2.167720347642898560e-02
-3.758811205625534058e-02
-6.954497098922729492e-02
-7.072716951370239258e-03
7.395151257514953613e-02
-2.162049710750579834e-02
-5.427392572164535522e-02
4.734843969345092773e-03
-1.624722033739089966e-02
-1.315575838088989258e-02
8.696869015693664551e-03
6.410375237464904785e-02
-5.648830533027648926e-02
5.785740911960601807e-03
-3.289908170700073242e-03
2.306107431650161743e-02
5.398051440715789795e-02
6.730848550796508789e-02
3.759249299764633179e-02
2.496813237667083740e-02
7.018789649009704590e-02
-7.250105589628219604e-02
7.273122668266296387e-02
-5.582593381404876709e-02
4.784342646598815918e-02
1.349633187055587769e-02
7.904875278472900391e-02
-3.223579749464988708e-02
2.357286959886550903e-02
-1.638352125883102417e-02
2.532505244016647339e-02
-3.286517038941383362e-02
-1.059013605117797852e-02
7.464346289634704590e-02
6.364139914512634277e-02
-6.032426655292510986e-02
-5.514762923121452332e-02
8.142809569835662842e-02
1.756658405065536499e-02
-7.256422936916351318e-02
7.638125121593475342e-02
-5.994135886430740356e-02
-4.264434054493904114e-02
-3.695687279105186462e-02
-6.761041283607482910e-02
-3.382856026291847229e-02
5.837228894233703613e-02
-1.266584545373916626e-02
-2.215005084872245789e-02
-3.456877544522285461e-02
-1.565487682819366455e-02
5.334593355655670166e-02
-1.919433474540710449e-02
-3.147880733013153076e-02
2.904113382101058960e-02
2.113521844148635864e-02
3.149224072694778442e-02
-7.438662648200988770e-02
6.391280889511108398e-02
1.608651131391525269e-02
-3.543904051184654236e-02
-7.513784617185592651e-02
-5.244093388319015503e-02
1.963359117507934570e-02
5.338281393051147461e-02
-8.184006810188293457e-02
-5.649305880069732666e-03
3.124140948057174683e-02
-4.878533259034156799e-02
6.529994308948516846e-02
7.338972389698028564e-02
-2.771668136119842529e-03
1.617926359176635742e-02
4.249671101570129395e-02
5.433678627014160156e-02
4.196735471487045288e-02
4.943133890628814697e-02
2.090111374855041504e-04
7.181006669998168945e-02
7.688118517398834229e-02
-7.107824087142944336e-02
-2.978541329503059387e-02
-7.063815742731094360e-02
-7.562331855297088623e-02
-2.236796170473098755e-02
-4.916356131434440613e-02
7.167929410934448242e-02
-8.005758374929428101e-02
6.938493251800537109e-02
1.930531114339828491e-02
5.810397863388061523e-02
3.881464898586273193e-02
2.734617143869400024e-02
7.636408507823944092e-02
-3.850259259343147278e-02
-5.976870656013488770e-02
5.524566769599914551e-02
8.089692890644073486e-02
6.260804831981658936e-03
-3.354396671056747437e-02
-6.862473487854003906e-02
-8.154033124446868896e-02
1.977977156639099121e-02
-1.875498145818710327e-02
-1.410537958145141602e-02
-6.061958521604537964e-02
5.340389907360076904e-02
-6.646770983934402466e-02
-5.921141803264617920e-02
-5.732233077287673950e-02
-5.344144999980926514e-03
6.747379899024963379e-02
-1.752657443284988403e-02
-1.039053499698638916e-02
-4.775421693921089172e-02
-6.720095872879028320e-03
-3.015115112066268921e-02
-2.019606530666351318e-03
-6.245571374893188477e-02
5.764128267765045166e-02
-9.000532329082489014e-03
-1.295499503612518311e-03
4.064645618200302124e-02
-7.456393539905548096e-02
-2.404265105724334717e-02
-5.299950018525123596e-02
-6.683716177940368652e-02
-6.404589116573333740e-02
-5.566054582595825195e-02
5.212262272834777832e-02
4.773025214672088623e-02
-6.751127541065216064e-02
8.152449131011962891e-02
-7.042236626148223877e-02
4.639464616775512695e-02
-2.852153778076171875e-02
3.928272426128387451e-02
-4.181261360645294189e-02
-3.582813590764999390e-02
-4.521153867244720459e-03
3.385600447654724121e-02
5.659388005733489990e-02
-2.688575908541679382e-02
-5.936554819345474243e-02
-8.139754831790924072e-02
-4.670045152306556702e-02
-4.310526698827743530e-02
1.007148623466491699e-02
-4.891174659132957458e-02
3.919998556375503540e-02
2.717877924442291260e-02
-8.158662915229797363e-02
7.565917074680328369e-02
-4.596438258886337280e-02
-3.016953915357589722e-02
6.271927058696746826e-02
7.300886511802673340e-02
6.354793906211853027e-02
7.774379849433898926e-02
3.757453709840774536e-02
2.889356017112731934e-02
-1.782722026109695435e-02
-7.432073354721069336e-02
-3.229517489671707153e-02
-1.491799950599670410e-02
8.413121104240417480e-04
2.696002274751663208e-02
-7.888078689575195312e-03
1.374101638793945312e-02
-6.745048612356185913e-02
-1.977648586034774780e-02
4.508723318576812744e-02
-2.504277229309082031e-02
-4.350312054157257080e-03
6.365774571895599365e-02
-7.199802249670028687e-02
-5.106529593467712402e-02
-5.584692955017089844e-02
-1.453086733818054199e-02
6.551100313663482666e-02
-2.584749460220336914e-02
-3.680114820599555969e-02
-2.007560059428215027e-02
-6.117932870984077454e-02
-3.754509612917900085e-02
6.807598471641540527e-02
1.390100270509719849e-02
5.820664763450622559e-02
1.354441791772842407e-02
-3.664306923747062683e-02
-6.813640892505645752e-02
-5.710538476705551147e-02
-3.147246316075325012e-02
-5.302057787775993347e-02
5.377179384231567383e-02
7.567349076271057129e-02
-6.848786771297454834e-02
2.329155802726745605e-02
-3.957969322800636292e-02
5.359040200710296631e-02
4.596918821334838867e-02
-4.992819204926490784e-02
-3.123030066490173340e-03
-4.263102635741233826e-02
-2.372806146740913391e-02
6.386747956275939941e-02
-6.900027394294738770e-02
4.557774960994720459e-02
-6.258767098188400269e-02
-6.628803908824920654e-03
-1.189372688531875610e-02
-5.515285581350326538e-02
9.504772722721099854e-03
-6.006249412894248962e-02
-5.051635205745697021e-03
7.395181059837341309e-02
7.258972525596618652e-02
3.432918339967727661e-02
-2.868164330720901489e-02
2.680538594722747803e-02
-3.018990531563758850e-02
-4.067711904644966125e-02
-2.986559271812438965e-02
4.458153247833251953e-02
6.111031770706176758e-02
-3.127773106098175049e-02
-4.962352290749549866e-02
-7.850889116525650024e-02
6.515257060527801514e-02
8.167847990989685059e-03
6.585550308227539062e-02
-2.456992492079734802e-02
5.531722307205200195e-02
6.670920550823211670e-02
-5.519412457942962646e-03
-3.996575996279716492e-02
-5.817660689353942871e-02
-2.645427733659744263e-02
7.771596312522888184e-02
-5.816221237182617188e-04
3.953074663877487183e-02
4.409587383270263672e-02
-2.976968139410018921e-02
7.526870071887969971e-02
-3.119806200265884399e-02
-2.109355479478836060e-02
-7.136844843626022339e-02
7.626226544380187988e-02
2.496365457773208618e-02
-5.648732185363769531e-02
5.917800962924957275e-02
5.363777279853820801e-02
6.803655624389648438e-02
2.386029064655303955e-02
1.007822155952453613e-02
-2.667662873864173889e-02
-7.261981815099716187e-02
-1.654782891273498535e-02
7.238501310348510742e-02
-8.226579427719116211e-02
-6.032813340425491333e-02
-6.812405586242675781e-02
4.838909208774566650e-02
-7.555626332759857178e-02
7.585310935974121094e-02
-6.233098730444908142e-02
-6.202117353677749634e-02
-5.490508675575256348e-02
-6.382850557565689087e-02
-8.135414123535156250e-02
-6.306985020637512207e-02
-2.325028181076049805e-04
2.959626168012619019e-02
-4.643921181559562683e-02
-6.007198244333267212e-02
-2.148466929793357849e-02
7.477581501007080078e-02
7.806092500686645508e-03
-8.765026926994323730e-03
-4.729598388075828552e-02
-6.150348484516143799e-02
9.115785360336303711e-05
-9.658880531787872314e-03
7.657445967197418213e-03
1.502422243356704712e-02
-4.134204611182212830e-02
-1.386231184005737305e-02
-5.581945180892944336e-02
3.630184382200241089e-02
6.037734448909759521e-02
-3.378780186176300049e-02
-9.629577398300170898e-03
7.990203797817230225e-02
-5.126782506704330444e-02
6.388661265373229980e-02
-1.739155501127243042e-02
-6.283115595579147339e-02
6.795836985111236572e-02
-1.493608951568603516e-02
-3.678452968597412109e-02
6.257654726505279541e-02
-1.462167501449584961e-02
-3.406579792499542236e-02
5.794669687747955322e-02
5.869917571544647217e-02
7.494972646236419678e-02
4.332000017166137695e-02
2.072561532258987427e-02
-1.526110619306564331e-02
3.917859494686126709e-02
-2.914598211646080017e-02
2.083808928728103638e-02
6.345741450786590576e-03
4.321143031120300293e-02
4.139095544815063477e-02
-6.593470275402069092e-02
-8.359648287296295166e-03
-1.660186052322387695e-02
5.285370349884033203e-02
9.395577013492584229e-03
3.042425960302352905e-02
-5.579998344182968140e-02
-3.370400890707969666e-02
4.070660471916198730e-02
-6.342700123786926270e-02
6.206962466239929199e-02
7.011088728904724121e-02
-7.416158914566040039e-03
-2.840951830148696899e-02
3.514525294303894043e-02
-1.089445501565933228e-02
2.174039185047149658e-02
4.362799227237701416e-03
2.085018903017044067e-02
2.236371487379074097e-02
-5.966564267873764038e-02
7.523214817047119141e-02
6.423294544219970703e-02
-3.150732815265655518e-02
8.653715252876281738e-03
-8.091368526220321655e-02
-4.845691472291946411e-02
4.103162139654159546e-02
7.088877260684967041e-03
-3.885037824511528015e-02
4.177696257829666138e-02
-5.394040048122406006e-02
1.913081109523773193e-02
8.149698376655578613e-03
-3.984016552567481995e-02
3.591369837522506714e-02
3.235801309347152710e-02
5.698671936988830566e-02
-5.285421013832092285e-02
5.806799232959747314e-02
3.313165903091430664e-02
3.386051952838897705e-02
6.315232813358306885e-02
4.142619669437408447e-02
4.234142601490020752e-03
-6.199247390031814575e-02
4.578278958797454834e-02
-3.412663936614990234e-04
1.396505534648895264e-02
1.105758547782897949e-02
2.483401447534561157e-02
-7.541536539793014526e-02
-3.057766333222389221e-02
-5.740113556385040283e-03
6.666316092014312744e-02
9.406812489032745361e-03
2.921032905578613281e-02
2.200987935066223145e-02
-3.336726501584053040e-02
1.552574336528778076e-03
2.726247906684875488e-02
4.974131286144256592e-02
3.263372927904129028e-02
-7.179491966962814331e-02
2.169676870107650757e-02
6.168948113918304443e-02
-4.162446036934852600e-02
-5.863063782453536987e-02
-5.648955702781677246e-03
7.481214404106140137e-02
-6.388425081968307495e-02
-3.726666793227195740e-02
2.256836742162704468e-02
1.508468389511108398e-02
4.274305701255798340e-02
-3.187970444560050964e-02
-4.271493479609489441e-02
-9.434804320335388184e-03
-6.481386721134185791e-03
-2.363963425159454346e-02
7.300756871700286865e-02
7.038532197475433350e-02
1.160351932048797607e-02
-7.976316660642623901e-02
5.208766460418701172e-02
7.520678639411926270e-02
3.141482919454574585e-02
6.100025773048400879e-02
-2.259299159049987793e-03
1.532932370901107788e-02
4.770588874816894531e-02
7.950809597969055176e-02
3.219319134950637817e-02
1.715818792581558228e-02
-6.931328773498535156e-02
2.724703401327133179e-02
-6.672079861164093018e-02
2.886335551738739014e-02
-4.779656231403350830e-02
-3.596726059913635254e-02
-3.899586573243141174e-02
-1.674703508615493774e-02
-4.304392263293266296e-02
-5.996996164321899414e-02
-1.460435241460800171e-02
6.825217604637145996e-02
-7.244011014699935913e-02
-6.131758913397789001e-02
6.207913160324096680e-03
-2.472413703799247742e-02
-3.716930747032165527e-03
6.087441742420196533e-02
-3.400086238980293274e-02
2.828177064657211304e-02
-6.781679391860961914e-02
1.089698821306228638e-02
7.426035404205322266e-02
-6.397038698196411133e-02
-5.105435475707054138e-02
-1.893801987171173096e-02
7.557158172130584717e-02
-1.292239129543304443e-02
7.619418203830718994e-02
-3.619400784373283386e-02
2.524390816688537598e-02
-5.371447652578353882e-02
-4.378620162606239319e-02
6.635686755180358887e-02
6.802390515804290771e-02
6.339970231056213379e-02
6.011387705802917480e-02
-4.653919115662574768e-02
-1.103571802377700806e-02
5.642019212245941162e-02
7.587866485118865967e-02
3.429514169692993164e-02
-4.234627261757850647e-02
5.858740210533142090e-02
7.560923695564270020e-02
-5.730062723159790039e-02
-4.490971565246582031e-02
-5.266542732715606689e-02
-4.373297095298767090e-02
7.978193461894989014e-02
3.976403176784515381e-02
1.267120987176895142e-02
8.131022751331329346e-02
3.018393367528915405e-02
-2.526178210973739624e-02
-5.624220892786979675e-02
-3.820466250181198120e-02
-1.708034425973892212e-02
-4.691437631845474243e-02
-1.690489798784255981e-02
-2.501928061246871948e-02
-2.571433782577514648e-03
5.931182205677032471e-02
4.283897578716278076e-03
-4.745985567569732666e-02
-5.671159923076629639e-02
4.108854383230209351e-02
-5.092572048306465149e-02
-9.200789034366607666e-03
3.165981173515319824e-02
-2.014381811022758484e-02
2.953399717807769775e-02
3.716573119163513184e-03
3.365572541952133179e-02
2.814766764640808105e-02
-6.514286249876022339e-02
-1.947451382875442505e-02
-2.551008015871047974e-02
-7.281433045864105225e-02
8.235721290111541748e-02
2.090693265199661255e-02
1.146952062845230103e-02
3.788758069276809692e-02
-7.862674444913864136e-02
-5.012743175029754639e-03
3.577168285846710205e-02
-3.782415390014648438e-02
-5.357051640748977661e-02
-1.500444114208221436e-02
5.429638922214508057e-02
-2.602113038301467896e-02
7.002247869968414307e-02
6.126049160957336426e-02
-1.681923866271972656e-03
4.928866028785705566e-02
-2.865172922611236572e-02
-1.448243111371994019e-02
-4.494760185480117798e-02
-6.831772625446319580e-02
4.746212065219879150e-02
-7.440106570720672607e-02
4.602114856243133545e-02
7.904896140098571777e-02
1.693872362375259399e-02
-3.028161451220512390e-02
-5.832461267709732056e-02
-4.162129759788513184e-02
-7.850494235754013062e-02
7.568636536598205566e-02
-1.302857697010040283e-02
-2.172479778528213501e-02
6.703455746173858643e-02
-5.690697580575942993e-02
-7.788749039173126221e-02
3.855456411838531494e-02
7.366150617599487305e-03
5.955994129180908203e-02
2.534567564725875854e-02
-6.851151585578918457e-03
-2.065861970186233521e-02
-1.448288559913635254e-02
5.497297644615173340e-02
-4.972784221172332764e-02
-2.451168745756149292e-02
-5.447154492139816284e-02
-3.759481012821197510e-02
4.859691858291625977e-02
2.374931424856185913e-02
3.643169999122619629e-03
5.371513962745666504e-02
7.964251935482025146e-02
1.046863198280334473e-02
5.305840075016021729e-02
1.744812726974487305e-02
-8.349694311618804932e-03
-5.223434045910835266e-02
-2.531155571341514587e-02
-7.711853832006454468e-02
3.558786958456039429e-02
-4.389879107475280762e-02
2.524178475141525269e-02
5.060759186744689941e-02
4.540929198265075684e-02
7.439112663269042969e-02
-5.267332494258880615e-02
3.940320760011672974e-02
3.776874393224716187e-02
5.642534792423248291e-02
-7.326413691043853760e-02
7.434470951557159424e-02
1.266101002693176270e-02
4.591877758502960205e-02
6.925603747367858887e-02
1.482263207435607910e-02
5.872301757335662842e-02
-7.542440295219421387e-02
-2.536274492740631104e-02
-4.539445042610168457e-03
4.711188375949859619e-02
-6.055513769388198853e-02
-2.969190478324890137e-03
6.535132229328155518e-02
8.122080564498901367e-02
-4.841931164264678955e-03
1.014773547649383545e-02
4.059627652168273926e-03
3.736075758934020996e-02
-2.371716126799583435e-02
6.323847174644470215e-02
-3.028340265154838562e-02
5.416412651538848877e-02
2.599661797285079956e-02
-1.787282526493072510e-02
-3.016250580549240112e-02
5.494737625122070312e-02
7.719455659389495850e-02
-1.119727641344070435e-02
-2.457200735807418823e-02
5.224648118019104004e-02
-4.236412793397903442e-02
7.036353647708892822e-02
-2.559944987297058105e-03
2.745836973190307617e-02
8.611030876636505127e-03
-4.228390753269195557e-03
-4.825475811958312988e-02
6.291846930980682373e-02
4.586212337017059326e-03
-7.120789587497711182e-02
3.919173777103424072e-02
8.098538219928741455e-02
2.056478708982467651e-02
3.488395363092422485e-02
8.231393992900848389e-02
-4.691478610038757324e-02
-1.563898473978042603e-02
-1.773916184902191162e-02
-3.406709432601928711e-02
4.454636573791503906e-02
3.592027723789215088e-02
-6.024394929409027100e-02
6.853789091110229492e-02
-2.412978559732437134e-02
-4.788414761424064636e-02
4.190846532583236694e-02
6.796307861804962158e-03
3.714135289192199707e-02
-3.174133598804473877e-03
6.751306354999542236e-02
-6.680168211460113525e-02
-6.068577989935874939e-02
7.365047931671142578e-03
2.294746041297912598e-02
2.815024554729461670e-02
5.462624132633209229e-03
-5.732995271682739258e-02
-4.785763099789619446e-02
-6.768263876438140869e-02
8.970879018306732178e-03
-4.598410055041313171e-02
1.505866646766662598e-03
7.768030464649200439e-02
3.504066169261932373e-02
1.223350316286087036e-02
-6.170249730348587036e-02
-6.485565751791000366e-02
-1.972312480211257935e-02
-6.480016559362411499e-02
-5.590457841753959656e-02
3.340756893157958984e-02
3.760968148708343506e-02
-7.263062149286270142e-02
2.879033982753753662e-02
6.315580010414123535e-02
6.278882920742034912e-02
-3.745912387967109680e-02
-2.940901368856430054e-02
5.328340828418731689e-02
1.487445086240768433e-02
3.910040110349655151e-02
8.204446732997894287e-02
-6.156162172555923462e-02
-3.106701001524925232e-02
-1.608914136886596680e-02
-6.260656565427780151e-02
-5.167237669229507446e-02
-2.561734616756439209e-02
-7.999446988105773926e-02
-3.475887328386306763e-02
-5.577211081981658936e-02
-4.649005830287933350e-03
-7.080473750829696655e-02
6.342782080173492432e-02
3.653908520936965942e-02
-2.377650141716003418e-02
5.800838768482208252e-02
-6.806133687496185303e-02
-4.758580401539802551e-02
3.605663031339645386e-02
-5.097928270697593689e-02
3.032588958740234375e-02
7.371352612972259521e-02
-5.235050618648529053e-02
1.383956521749496460e-02
2.565006911754608154e-02
-5.160054564476013184e-02
9.016953408718109131e-03
3.848031908273696899e-02
4.403522610664367676e-02
5.521123111248016357e-02
4.928717017173767090e-02
-1.132587343454360962e-02
3.563182801008224487e-02
-7.322609424591064453e-02
8.062776923179626465e-02
5.816675722599029541e-03
1.904366165399551392e-02
-7.355637103319168091e-02
6.447970867156982422e-02
5.370180308818817139e-02
3.749253600835800171e-02
4.234039783477783203e-02
6.196905672550201416e-02
-5.618744343519210815e-02
6.207086145877838135e-02
-6.499806046485900879e-02
3.162885457277297974e-02
-7.027009874582290649e-02
6.828272342681884766e-02
5.400623381137847900e-02
-2.421620860695838928e-02
4.011792689561843872e-02
7.776111364364624023e-02
-4.196165874600410461e-02
5.519825220108032227e-02
-5.187294632196426392e-02
-2.046215906739234924e-02
-8.102407306432723999e-02
-2.020372450351715088e-01
-5.289551615715026855e-02
-1.132110506296157837e-02
-5.816412344574928284e-02
-1.156586259603500366e-01
-4.534627497196197510e-02
-4.043135792016983032e-02
-7.048448547720909119e-03
7.658159732818603516e-02
5.863086506724357605e-02
1.374338269233703613e-01
-8.245040476322174072e-02
4.640116542577743530e-02
-1.626025140285491943e-01
1.624100208282470703e-01
-6.042034924030303955e-02
-4.440946504473686218e-02
-5.279964208602905273e-02
-1.909782737493515015e-01
8.603230118751525879e-03
5.315524339675903320e-02
-2.130722254514694214e-02
5.959923937916755676e-02
5.430205911397933960e-02
1.103671416640281677e-01
-7.945684343576431274e-02
1.648385673761367798e-01
-1.618903875350952148e-02
-9.596365089237224311e-06
2.102376520633697510e-02
1.208457946777343750e-01
-3.915770351886749268e-02
2.193398773670196533e-02
8.510746993124485016e-03
5.546758696436882019e-02
-7.335666567087173462e-02
2.344433218240737915e-02
-4.891883954405784607e-02
1.262090355157852173e-02
-2.283632755279541016e-02
-2.110628932714462280e-01
1.733381152153015137e-01
1.545314788818359375e-01
4.712472856044769287e-02
-5.272042751312255859e-02
7.713940739631652832e-02
8.704065531492233276e-02
7.193563133478164673e-02
-4.498193785548210144e-02
1.877658814191818237e-01
6.027461588382720947e-02
-2.259231358766555786e-02
-5.377070978283882141e-02
8.915506303310394287e-02
-3.012740612030029297e-02
-1.109680980443954468e-01
5.183669552206993103e-02
1.441455185413360596e-01
7.453599572181701660e-02
-1.683842837810516357e-01
-6.015104055404663086e-02
-2.342329546809196472e-02
-1.183584984391927719e-02
1.322416961193084717e-02
-5.605475977063179016e-02
-2.336278557777404785e-03
1.798563078045845032e-02
1.538071930408477783e-01
-9.492269903421401978e-02
5.434033274650573730e-02
-6.975898519158363342e-03
-5.098900943994522095e-02
4.115384072065353394e-02
-1.039310544729232788e-02
-1.353430747985839844e-02
1.476569771766662598e-01
5.539089441299438477e-02
-8.078309893608093262e-02
3.715429827570915222e-02
-6.049244105815887451e-02
-2.655737102031707764e-02
-1.517480798065662384e-02
4.631202667951583862e-02
-1.243426278233528137e-01
-1.131907291710376740e-02
-4.953234270215034485e-02
-2.049323767423629761e-01
-1.561966538429260254e-01
-2.820652164518833160e-02
-6.455898284912109375e-02
-3.872993215918540955e-02
-9.908939898014068604e-02
-6.778929382562637329e-02
-3.346539661288261414e-02
1.388544589281082153e-02
7.017144560813903809e-02
5.511637032032012939e-02
5.317951738834381104e-02
8.012843132019042969e-02
-3.638102114200592041e-02
-1.117506846785545349e-01
1.313798129558563232e-02
1.513074338436126709e-02
-7.528960704803466797e-02
-7.809233665466308594e-02
-3.687947988510131836e-03
-3.476046398282051086e-02
-5.802848935127258301e-02
-7.504433393478393555e-03
1.068345457315444946e-01
7.885871082544326782e-02
-1.347773522138595581e-01
1.743032410740852356e-02
-8.298759907484054565e-02
7.224804908037185669e-02
-5.974468588829040527e-02
7.525393366813659668e-02
3.095732629299163818e-02
-1.463649868965148926e-01
-4.062883928418159485e-02
-5.826972424983978271e-03
6.614942848682403564e-02
9.609052538871765137e-02
8.774276077747344971e-02
1.614610701799392700e-01
-1.066612005233764648e-01
7.530445605516433716e-02
-6.737548857927322388e-02
-1.064235623925924301e-02
5.178478360176086426e-02
1.184019744396209717e-01
-2.146102674305438995e-02
-4.504296556115150452e-02
8.258160948753356934e-02
1.296955198049545288e-01
-2.111327946186065674e-01
1.057057082653045654e-02
-4.655423387885093689e-02
8.741210401058197021e-02
-4.477111995220184326e-02
-9.415382891893386841e-02
5.694237723946571350e-02
9.053045511245727539e-02
7.640552520751953125e-02
-4.790699109435081482e-02
1.372746378183364868e-01
4.550781100988388062e-02
1.968152821063995361e-01
-1.152048911899328232e-02
4.257410019636154175e-02
-1.069192588329315186e-02
3.929217159748077393e-02
-1.561380177736282349e-01
1.629076153039932251e-01
-3.875350207090377808e-02
-8.872812986373901367e-02
1.680941432714462280e-01
1.182711645960807800e-01
7.351090013980865479e-02
-1.332574784755706787e-01
-4.600865393877029419e-02
-3.631262853741645813e-02
8.547396957874298096e-02
-1.091553568840026855e-01
-8.573213219642639160e-02
5.872344970703125000e-02
1.131770107895135880e-02
1.642257869243621826e-01
-7.059536874294281006e-02
3.986434638500213623e-02
3.236127644777297974e-02
-1.423222571611404419e-01
1.721736602485179901e-02
-3.429071977734565735e-02
5.714839696884155273e-02
1.293071657419204712e-01
-1.665247976779937744e-02
-3.507671132683753967e-02
1.096569821238517761e-01
-6.492909789085388184e-02
6.634151190519332886e-02
5.189296230673789978e-02
4.640277475118637085e-02
-8.402103930711746216e-02
9.998990595340728760e-02
-8.000724017620086670e-02
-9.652166813611984253e-02
-2.742665261030197144e-02
6.800631433725357056e-02
-5.477970838546752930e-02
2.024024724960327148e-03
-1.045071035623550415e-01
2.953662723302841187e-02
4.714025557041168213e-02
5.138076841831207275e-03
-1.208386290818452835e-02
6.727224588394165039e-02
-5.834786966443061829e-02
-1.486778259277343750e-03
5.719183478504419327e-03
-1.646050065755844116e-01
-1.186206936836242676e-02
2.635339647531509399e-02
-6.213878095149993896e-02
-4.498890414834022522e-02
3.090514056384563446e-02
5.232021212577819824e-02
-5.305292829871177673e-02
4.715099930763244629e-02
1.373748183250427246e-01
9.257052093744277954e-02
-2.034689635038375854e-01
6.228899583220481873e-02
-1.460495442152023315e-01
1.923004090785980225e-01
-1.911514401435852051e-01
4.028246551752090454e-02
-5.567276105284690857e-02
-1.816294044256210327e-01
-4.050921648740768433e-02
4.560264945030212402e-02
-5.323860794305801392e-02
7.893680781126022339e-02
-5.349346995353698730e-02
6.796880811452865601e-02
-6.666569411754608154e-02
1.451995223760604858e-01
6.217734515666961670e-02
8.469285443425178528e-03
-4.322722554206848145e-02
1.005646437406539917e-01
7.387068588286638260e-03
-2.921023219823837280e-02
5.119832977652549744e-02
1.298914253711700439e-01
-1.912927627563476562e-01
1.320682466030120850e-03
-7.708224654197692871e-02
9.997750073671340942e-02
-1.815475523471832275e-02
-1.343749761581420898e-01
1.736138164997100830e-01
1.366541534662246704e-01
-5.749335512518882751e-02
2.249339222908020020e-02
1.530433744192123413e-01
5.516715720295906067e-02
7.032980769872665405e-02
2.782386727631092072e-02
1.217623427510261536e-01
5.046935379505157471e-02
-6.604471802711486816e-02
-1.758455485105514526e-01
1.159499734640121460e-01
-2.669118344783782959e-02
-7.851508259773254395e-02
6.850662827491760254e-02
1.636511832475662231e-01
3.622881695628166199e-02
-9.462322294712066650e-02
-1.927256584167480469e-02
4.683831334114074707e-02
1.089219674468040466e-01
-1.890054531395435333e-02
3.537469729781150818e-02
-6.754086166620254517e-02
3.200520202517509460e-02
8.465547114610671997e-03
-1.359065808355808258e-02
-6.730549037456512451e-03
-9.059066325426101685e-02
-7.871865481138229370e-02
-6.356498226523399353e-03
8.028520643711090088e-02
6.691686809062957764e-02
1.465504914522171021e-01
2.320988476276397705e-02
-6.188011728227138519e-03
-2.423698548227548599e-03
-9.056970477104187012e-03
-3.899164125323295593e-02
6.576300412416458130e-02
1.719893664121627808e-01
-2.585108391940593719e-02
-3.582560643553733826e-02
7.658620178699493408e-02
-1.236691847443580627e-01
-1.667020916938781738e-01
1.061522215604782104e-01
-7.506365329027175903e-02
-5.666740238666534424e-02
3.357129171490669250e-02
-4.658921808004379272e-02
2.891919761896133423e-02
3.549971431493759155e-02
-3.523741289973258972e-02
5.292192101478576660e-02
-1.500978320837020874e-02
-4.792264848947525024e-02
-7.873596251010894775e-02
3.791405260562896729e-02
-3.427645936608314514e-02
-1.660247147083282471e-02
-2.206486091017723083e-02
1.328883320093154907e-02
4.807381331920623779e-02
-6.781481206417083740e-03
4.578329622745513916e-02
-1.960089057683944702e-02
-1.799634099006652832e-02
1.454432308673858643e-02
5.373564362525939941e-02
-5.113329738378524780e-02
-4.150391742587089539e-02
6.284546852111816406e-02
1.080649346113204956e-02
7.799416780471801758e-03
-3.077500686049461365e-02
3.960728645324707031e-02
6.209586560726165771e-02
3.649903088808059692e-02
-3.767767921090126038e-02
-2.585075423121452332e-02
5.605740845203399658e-02
4.039220511913299561e-03
7.010924816131591797e-02
2.555492520332336426e-02
3.758820891380310059e-02
7.933439314365386963e-02
-5.591245740652084351e-02
-1.666846871376037598e-02
-2.849236130714416504e-03
1.196112483739852905e-02
-7.055709511041641235e-02
4.457862675189971924e-02
3.056205064058303833e-02
3.165012598037719727e-02
-3.358802199363708496e-02
-9.762942790985107422e-04
6.869392096996307373e-02
-8.154712617397308350e-02
-6.107196211814880371e-02
2.072875946760177612e-02
-4.474721476435661316e-02
-1.322098076343536377e-03
-8.187589794397354126e-02
4.246013611555099487e-02
7.712264358997344971e-02
-2.458406984806060791e-02
-4.524594917893409729e-02
3.307548165321350098e-02
-7.630848139524459839e-02
4.819439351558685303e-02
-3.557266667485237122e-02
-6.620495766401290894e-02
6.532850861549377441e-02
8.237753808498382568e-02
7.711397111415863037e-02
-9.490080177783966064e-03
4.221553355455398560e-02
-5.361665785312652588e-02
-9.142354130744934082e-03
1.916785538196563721e-02
1.889832317829132080e-02
-5.866546183824539185e-02
-6.430378556251525879e-02
-2.413496375083923340e-03
-2.624242007732391357e-02
-7.047919183969497681e-02
1.994764804840087891e-02
-8.872315287590026855e-03
-5.571117997169494629e-02
5.000127851963043213e-02
-2.212325856089591980e-02
3.086097538471221924e-03
-6.421913206577301025e-02
5.704681575298309326e-02
6.052143871784210205e-02
6.603647768497467041e-02
3.706116974353790283e-02
4.428100585937500000e-02
-4.222724214196205139e-02
5.611875653266906738e-02
3.626556694507598877e-02
6.604094803333282471e-02
-2.663582563400268555e-05
-4.230853915214538574e-02
5.866673588752746582e-02
5.548632144927978516e-02
-7.056701183319091797e-02
7.274584472179412842e-02
-6.775443255901336670e-02
1.748038083314895630e-02
-4.897480085492134094e-02
7.562288641929626465e-02
-6.176495924592018127e-02
-1.802220940589904785e-02
3.477079421281814575e-02
2.796010673046112061e-02
6.802384555339813232e-02
6.259922683238983154e-02
-7.889829576015472412e-03
1.018692553043365479e-02
-5.958320572972297668e-02
3.875273466110229492e-02
-4.233323037624359131e-03
7.213886082172393799e-02
-4.702629521489143372e-02
3.255920112133026123e-02
-5.589357763528823853e-02
-6.944204866886138916e-02
7.439550757408142090e-02
5.951575934886932373e-03
-5.771112814545631409e-02
1.450761407613754272e-02
1.485194265842437744e-02
2.553714811801910400e-02
-1.635722815990447998e-03
3.751999139785766602e-02
-5.470577627420425415e-02
5.106255412101745605e-03
4.784318804740905762e-02
-6.759226322174072266e-02
-1.119360327720642090e-02
6.277164816856384277e-02
-1.391432434320449829e-02
-7.236269861459732056e-02
-2.379297837615013123e-02
5.328859388828277588e-02
1.128496229648590088e-02
-4.783350974321365356e-02
-2.562500536441802979e-02
1.136299967765808105e-02
-1.758289337158203125e-02
-6.597359478473663330e-02
5.818943679332733154e-02
-9.334318339824676514e-03
-4.973173141479492188e-02
-4.184573143720626831e-02
7.634869217872619629e-02
4.491338133811950684e-02
1.855397969484329224e-02
-7.685244828462600708e-02
1.239338517189025879e-02
-3.919635340571403503e-02
-2.891049534082412720e-02
5.709320306777954102e-02
-8.054637908935546875e-02
-1.792299747467041016e-02
-7.447409629821777344e-02
-1.455791294574737549e-02
-3.709886595606803894e-02
6.914259493350982666e-02
-3.849235922098159790e-02
-3.963498398661613464e-02
6.715120375156402588e-02
-8.153370767831802368e-02
7.961168885231018066e-04
2.948436141014099121e-02
-6.899216026067733765e-02
-5.613174289464950562e-02
3.866241872310638428e-02
-3.092562407255172729e-02
-4.227259382605552673e-02
-3.326406329870223999e-02
-3.209871426224708557e-02
1.894935965538024902e-03
-8.149071037769317627e-02
5.861595273017883301e-02
6.144239008426666260e-02
-5.139585584402084351e-02
-2.591903135180473328e-02
-8.169926702976226807e-03
2.754452079534530640e-02
4.074751585721969604e-02
3.021807223558425903e-02
5.943953990936279297e-02
-1.370865106582641602e-02
3.764851391315460205e-02
-6.948947906494140625e-02
-5.500534176826477051e-02
-3.192711994051933289e-02
-8.093238621950149536e-02
-6.873571127653121948e-02
-6.945461779832839966e-02
-9.132765233516693115e-03
-7.202469557523727417e-02
-7.026654481887817383e-02
-4.177692532539367676e-02
6.473025679588317871e-02
-4.102066159248352051e-04
6.351183354854583740e-02
7.685390114784240723e-02
-4.101895168423652649e-02
4.894417524337768555e-02
7.050767540931701660e-02
-2.297015115618705750e-02
-9.933345019817352295e-03
6.519445776939392090e-02
-6.815939396619796753e-02
2.861759066581726074e-02
1.558716595172882080e-02
-2.650022134184837341e-02
-4.435472562909126282e-02
3.489426523447036743e-02
7.008242607116699219e-02
2.311481535434722900e-02
2.137842774391174316e-02
-6.420070677995681763e-02
-2.786276116967201233e-02
-7.275249809026718140e-02
-4.455085098743438721e-02
-6.165068224072456360e-02
1.583996415138244629e-02
7.149681448936462402e-02
1.661887019872665405e-02
-7.618764042854309082e-02
-7.378740608692169189e-02
4.939019680023193359e-02
2.180159837007522583e-02
3.833562135696411133e-03
8.584551513195037842e-03
-4.474894329905509949e-02
2.285271137952804565e-02
-4.649485647678375244e-02
-7.388745993375778198e-02
7.849267125129699707e-02
1.892969757318496704e-02
-5.029650032520294189e-02
6.375797092914581299e-02
5.117504298686981201e-02
-7.318686693906784058e-02
-1.133710145950317383e-03
1.111305505037307739e-02
1.766365766525268555e-02
5.153912305831909180e-02
-1.750323921442031860e-02
6.295269727706909180e-02
1.391907781362533569e-02
8.039006590843200684e-02
-1.608951389789581299e-02
-7.357856631278991699e-02
-7.076329737901687622e-02
-1.714832335710525513e-02
-3.576353192329406738e-02
4.370778799057006836e-03
-5.233677476644515991e-02
2.943781018257141113e-02
1.799990981817245483e-02
6.876024603843688965e-02
-7.215749472379684448e-02
4.154210537672042847e-02
-1.055619865655899048e-02
-5.569961294531822205e-02
4.165647923946380615e-02
-7.209689915180206299e-02
5.226342380046844482e-02
5.422881245613098145e-02
-5.060046538710594177e-02
6.926889717578887939e-02
-4.931857809424400330e-02
-3.248308971524238586e-02
6.089061498641967773e-04
-7.679933309555053711e-02
4.995125532150268555e-02
-2.076730132102966309e-03
1.857226341962814331e-02
5.434098839759826660e-02
5.558288097381591797e-02
3.097206354141235352e-05
-8.172712475061416626e-02
5.363614857196807861e-02
1.621115952730178833e-02
8.203293383121490479e-02
2.406863868236541748e-02
-7.022847980260848999e-02
-1.364852488040924072e-02
6.617225706577301025e-02
-7.659438997507095337e-02
6.533716619014739990e-02
1.930354535579681396e-02
-7.314282655715942383e-02
-1.838729530572891235e-02
2.818465977907180786e-02
-7.372450828552246094e-02
-7.824965566396713257e-02
4.015900194644927979e-02
-6.382324546575546265e-02
-2.336621284484863281e-02
-3.785190731287002563e-02
-5.579315125942230225e-02
2.972059696912765503e-02
-4.977663233876228333e-02
-4.834155365824699402e-02
-2.870254218578338623e-02
-7.089424878358840942e-02
-1.702809333801269531e-02
-6.186283379793167114e-02
6.140565872192382812e-02
5.090191960334777832e-03
-2.771324291825294495e-02
7.230851054191589355e-02
7.044181227684020996e-02
2.191434055566787720e-02
2.742834389209747314e-03
5.133098363876342773e-02
1.350311189889907837e-02
-4.002957418560981750e-02
4.398465156555175781e-02
2.163283526897430420e-02
1.293883472681045532e-02
3.912188857793807983e-02
-2.764344215393066406e-03
6.776772439479827881e-02
-7.377927005290985107e-02
-2.056596800684928894e-02
-4.864171147346496582e-03
-1.393193751573562622e-02
7.715718448162078857e-02
8.371122181415557861e-03
-5.916115269064903259e-02
5.831810832023620605e-02
4.053294658660888672e-02
-1.470118761062622070e-03
6.353907287120819092e-03
-6.857692450284957886e-02
-4.617635905742645264e-02
-5.577480047941207886e-02
1.341541111469268799e-02
-2.040409669280052185e-02
-7.315156608819961548e-02
8.025443553924560547e-02
4.223668575286865234e-02
-5.887634307146072388e-02
5.276285111904144287e-02
-8.134243637323379517e-02
-2.262140437960624695e-02
1.587186008691787720e-02
4.031291604042053223e-02
4.761420190334320068e-02
6.196044385433197021e-02
2.221983671188354492e-02
7.021692395210266113e-02
4.354955255985260010e-02
4.565045237541198730e-02
-3.910277783870697021e-02
-6.889357417821884155e-02
6.439939141273498535e-02
2.453596144914627075e-02
5.510471761226654053e-03
-1.119735836982727051e-02
2.973387390375137329e-02
-2.933107316493988037e-03
8.048526942729949951e-02
-5.295941233634948730e-02
-1.211130619049072266e-02
5.735494196414947510e-03
-1.976466178894042969e-02
5.388608574867248535e-02
-3.965822234749794006e-02
6.868024170398712158e-02
-3.110933676362037659e-02
6.962481141090393066e-02
1.337648183107376099e-02
-5.583695322275161743e-02
-3.676178678870201111e-02
-5.898182094097137451e-02
-1.980061084032058716e-02
2.032187581062316895e-02
-5.770735442638397217e-03
7.490476965904235840e-02
-3.748624771833419800e-02
3.763540834188461304e-02
1.360102742910385132e-02
-1.171956211328506470e-02
-4.640072584152221680e-03
-7.388013601303100586e-02
1.195613294839859009e-02
-7.543455809354782104e-02
-5.036731064319610596e-02
2.311670035123825073e-02
6.293618679046630859e-02
-6.070518493652343750e-02
-4.334941878914833069e-02
-1.382626593112945557e-02
-6.761819124221801758e-03
3.383415937423706055e-02
-1.631321758031845093e-02
5.515664815902709961e-02
3.354091942310333252e-02
1.082260161638259888e-02
2.383969724178314209e-03
7.257035374641418457e-02
2.215859293937683105e-02
2.291958779096603394e-02
6.922474503517150879e-02
-8.038650453090667725e-02
3.706339001655578613e-02
2.556686848402023315e-02
-4.903160408139228821e-02
-3.067901730537414551e-02
-6.641905754804611206e-02
-3.143028914928436279e-02
5.113719403743743896e-02
4.410691559314727783e-03
2.171203494071960449e-03
-3.108158707618713379e-03
6.682421267032623291e-02
-6.495656073093414307e-02
6.043620407581329346e-03
3.192684799432754517e-02
-2.850148454308509827e-02
3.108315169811248779e-03
-4.554221034049987793e-02
2.801209688186645508e-02
-5.963792651891708374e-02
-2.499368786811828613e-02
3.072698414325714111e-02
-4.323215410113334656e-02
-2.526693046092987061e-03
-1.574577391147613525e-02
4.759547114372253418e-02
-1.230674982070922852e-02
1.369018107652664185e-02
4.644829034805297852e-02
-1.786825060844421387e-02
-3.544075042009353638e-02
6.812378764152526855e-03
-1.806695014238357544e-02
-4.878876730799674988e-02
-7.369641959667205811e-02
-3.844590485095977783e-02
-5.668085813522338867e-02
-7.920648157596588135e-02
5.868457257747650146e-02
3.741259127855300903e-02
6.012296676635742188e-02
-2.027795463800430298e-02
-1.671307533979415894e-02
6.891502439975738525e-02
-5.308655649423599243e-02
-4.779231920838356018e-02
6.908193230628967285e-02
-3.617955371737480164e-02
-2.120785415172576904e-03
1.017050445079803467e-02
2.282349765300750732e-02
9.152978658676147461e-03
6.795488297939300537e-03
4.566764831542968750e-02
2.670526504516601562e-02
7.622826099395751953e-02
-2.333327382802963257e-02
3.188585489988327026e-02
8.150564134120941162e-02
4.806444048881530762e-02
-4.756808280944824219e-03
-6.059353798627853394e-02
4.791095852851867676e-04
-2.226144075393676758e-02
-4.800991714000701904e-02
-8.134830743074417114e-02
6.162540614604949951e-02
4.807443916797637939e-02
4.025585949420928955e-03
-8.095560222864151001e-02
-6.064142659306526184e-02
-5.534932017326354980e-03
-8.076827228069305420e-02
6.422695517539978027e-02
-6.205234676599502563e-02
6.276798248291015625e-02
-1.786413043737411499e-02
4.192897677421569824e-02
-3.626668453216552734e-02
1.755227148532867432e-02
-5.719389021396636963e-02
-9.143903851509094238e-03
-7.262519747018814087e-02
-5.331023782491683960e-02
-4.076182842254638672e-03
-3.630176559090614319e-02
6.294304132461547852e-02
-6.490063667297363281e-02
1.317875832319259644e-02
2.972558140754699707e-02
1.920187473297119141e-02
8.121956884860992432e-02
1.880339533090591431e-02
3.348916023969650269e-02
-9.317032992839813232e-03
-7.673512399196624756e-02
-6.352587789297103882e-02
3.293149173259735107e-03
-1.587139070034027100e-02
-1.538976281881332397e-02
5.863672494888305664e-02
-5.793163180351257324e-02
-5.957782268524169922e-02
7.457126677036285400e-02
-8.104947209358215332e-02
-4.246371239423751831e-02
-3.816280141472816467e-02
-2.010824531316757202e-02
1.434440910816192627e-02
-4.380263388156890869e-03
-5.141838639974594116e-02
5.777840316295623779e-02
-3.943298384547233582e-02
-3.501628339290618896e-02
-2.725992351770401001e-02
-6.923737376928329468e-02
2.248306572437286377e-02
4.110828787088394165e-02
7.239773869514465332e-02
6.998109817504882812e-02
1.254616677761077881e-02
-5.027982592582702637e-02
5.993032455444335938e-02
5.643963813781738281e-02
7.077376544475555420e-02
6.863068044185638428e-02
-6.888603419065475464e-02
3.410024940967559814e-02
-6.305476278066635132e-02
-4.381214827299118042e-02
6.638735532760620117e-02
-6.349064409732818604e-02
7.724599540233612061e-02
-6.905049085617065430e-03
-6.294871866703033447e-02
-6.279927492141723633e-02
7.496100664138793945e-02
-6.586971879005432129e-02
5.637072026729583740e-03
5.429951846599578857e-02
6.936629116535186768e-02
6.101138889789581299e-02
-4.116746783256530762e-02
-6.573574244976043701e-02
-6.924301385879516602e-03
-2.203636243939399719e-02
-3.638722747564315796e-02
5.518238246440887451e-02
-2.139551565051078796e-02
4.631142318248748779e-02
5.875037610530853271e-02
2.589649707078933716e-02
3.343239426612854004e-02
-2.970695495605468750e-04
-7.186270505189895630e-02
4.373937845230102539e-03
-5.257481709122657776e-02
6.576353311538696289e-02
7.211872935295104980e-02
1.895578205585479736e-02
-6.493159383535385132e-02
2.132497727870941162e-02
-1.435365527868270874e-02
-1.237083971500396729e-02
5.755551159381866455e-03
-5.620828643441200256e-02
-2.998810261487960815e-02
6.915673613548278809e-02
4.679904878139495850e-02
5.207127332687377930e-02
7.980267703533172607e-02
7.598964869976043701e-02
-6.041534617543220520e-02
1.310101896524429321e-02
-5.128071457147598267e-02
-3.258244320750236511e-02
9.636588394641876221e-03
5.909617245197296143e-02
-4.963654279708862305e-02
-7.872368395328521729e-02
2.574829757213592529e-02
-4.506567120552062988e-02
4.380625486373901367e-02
-4.909873008728027344e-03
-6.079263240098953247e-02
5.022756755352020264e-03
5.783866345882415771e-02
-6.979528814554214478e-02
-3.154233098030090332e-02
-7.370190322399139404e-02
-3.634468466043472290e-02
-7.513069361448287964e-02
5.109468102455139160e-02
-6.144084408879280090e-02
4.610484838485717773e-02
-1.068359613418579102e-02
-3.186623007059097290e-02
1.833768188953399658e-02
-5.695093795657157898e-02
5.105647444725036621e-02
-6.831562519073486328e-02
-5.599491298198699951e-03
-4.498058184981346130e-02
-6.519006192684173584e-02
-6.353585422039031982e-02
8.134724199771881104e-02
4.076068103313446045e-02
-3.779048472642898560e-02
-5.297903344035148621e-02
-8.695080876350402832e-03
-7.569776475429534912e-02
6.333611905574798584e-02
1.311606168746948242e-02
5.019271373748779297e-02
6.765669584274291992e-02
-4.389366507530212402e-02
1.525256037712097168e-02
-4.939488694071769714e-02
5.886805057525634766e-02
-6.631398946046829224e-02
-4.399709403514862061e-03
5.651248991489410400e-02
-9.322986006736755371e-04
2.596338093280792236e-02
-1.752620190382003784e-02
-5.728080868721008301e-04
8.179962635040283203e-02
-3.238352388143539429e-02
-6.909211724996566772e-02
-6.426305323839187622e-02
-7.502097636461257935e-02
-5.170331150293350220e-02
-3.295383602380752563e-02
4.887479543685913086e-02
-2.087818086147308350e-02
-4.738271236419677734e-04
-6.278664618730545044e-02
-2.087006717920303345e-02
5.780905485153198242e-03
2.363009005784988403e-02
-5.609253421425819397e-02
7.844594120979309082e-02
-7.832686603069305420e-02
6.477795541286468506e-02
-3.633806481957435608e-02
7.790499925613403320e-02
7.989643514156341553e-02
1.762551069259643555e-02
3.190554678440093994e-03
-3.190779313445091248e-02
-3.554186969995498657e-02
-1.845285296440124512e-03
1.317383348941802979e-02
5.098329484462738037e-02
-4.299503564834594727e-02
-7.147398591041564941e-02
-2.894826233386993408e-03
2.314168214797973633e-02
3.391184657812118530e-02
-5.128024145960807800e-02
-3.531954064965248108e-02
-6.235707551240921021e-02
6.001107394695281982e-02
9.737834334373474121e-04
-5.892118439078330994e-02
-6.118759512901306152e-02
6.113424897193908691e-04
-6.077954918146133423e-02
9.652577340602874756e-03
4.086454212665557861e-02
2.746229618787765503e-02
-7.407932728528976440e-02
-5.414786189794540405e-02
-5.081356316804885864e-02
7.893520593643188477e-02
5.821016430854797363e-02
2.893637865781784058e-02
7.250636816024780273e-02
4.301883280277252197e-02
2.995292097330093384e-02
1.639039069414138794e-02
-3.840852528810501099e-02
8.125388622283935547e-02
-2.526376768946647644e-02
1.186658442020416260e-02
5.189293622970581055e-02
-5.789423361420631409e-02
6.046640872955322266e-02
-6.348997354507446289e-02
-3.800914064049720764e-02
-2.871831506490707397e-02
-1.092315465211868286e-02
-1.392463594675064087e-02
6.190562248229980469e-02
-3.521119430661201477e-02
-1.348655670881271362e-02
1.485645771026611328e-02
-2.265786007046699524e-02
1.320023089647293091e-02
-4.062577337026596069e-02
5.295902490615844727e-02
4.451932013034820557e-02
7.294601202011108398e-02
-7.696128636598587036e-02
-6.451971828937530518e-02
6.006930768489837646e-02
-5.497841164469718933e-02
-1.934874057769775391e-02
6.084205210208892822e-02
-3.909739851951599121e-02
-7.861588150262832642e-02
-8.561454713344573975e-03
-3.113344311714172363e-03
4.909223318099975586e-02
5.570647120475769043e-02
-2.107444405555725098e-02
-4.295293986797332764e-02
5.788183212280273438e-02
-7.956220209598541260e-02
-1.271058619022369385e-02
-4.255001991987228394e-02
-7.544647902250289917e-02
4.517994821071624756e-02
-6.457065045833587646e-02
8.167409896850585938e-02
8.085943758487701416e-02
1.640803366899490356e-02
4.034440219402313232e-02
-7.109697908163070679e-02
-1.968717575073242188e-02
7.967838644981384277e-02
-6.604432314634323120e-02
-3.923445940017700195e-02
-6.142049282789230347e-02
6.991904973983764648e-02
9.186334908008575439e-03
5.379153788089752197e-02
6.360411643981933594e-03
-6.694399565458297729e-02
-5.849738419055938721e-02
-4.255495965480804443e-03
1.683446764945983887e-02
3.746639192104339600e-02
8.962273597717285156e-03
2.851417660713195801e-02
5.289371311664581299e-02
-2.333410084247589111e-03
4.511871933937072754e-02
7.119302451610565186e-02
-8.044523745775222778e-02
2.524078637361526489e-02
-3.322538733482360840e-02
5.180712044239044189e-02
-2.925181761384010315e-02
-3.218798711895942688e-02
5.966812372207641602e-02
3.871111571788787842e-02
2.298866957426071167e-02
3.500371426343917847e-02
-3.305106610059738159e-02
-7.672354578971862793e-03
-4.368940368294715881e-02
-5.954107269644737244e-02
4.273532330989837646e-02
7.377387583255767822e-02
3.105604648590087891e-02
6.682211160659790039e-02
6.285710632801055908e-02
-1.183325052261352539e-02
-1.126348972320556641e-02
6.176494061946868896e-02
1.506946980953216553e-03
3.606902807950973511e-02
5.868583917617797852e-02
7.534876465797424316e-03
-9.004175662994384766e-04
5.178336799144744873e-02
7.353107631206512451e-02
4.424697160720825195e-02
-7.896007597446441650e-02
9.747646749019622803e-03
5.071297287940979004e-02
-7.496595382690429688e-02
1.815371215343475342e-03
1.453548669815063477e-02
1.520520448684692383e-02
9.706437587738037109e-03
-6.761176884174346924e-02
-3.785701468586921692e-02
-2.210691571235656738e-02
-3.654434531927108765e-02
6.555293500423431396e-02
3.319486975669860840e-03
-7.941971719264984131e-02
-7.890299707651138306e-02
-5.569617450237274170e-02
6.070074439048767090e-02
1.265732198953628540e-02
3.610750287771224976e-02
-8.053193986415863037e-02
-2.471946179866790771e-03
-1.537628471851348877e-02
4.297876358032226562e-02
2.879114449024200439e-02
-3.646492958068847656e-03
3.437758982181549072e-02
6.979112327098846436e-02
-8.077453821897506714e-02
-4.627227783203125000e-03
4.017006233334541321e-02
7.604029774665832520e-02
-3.205768018960952759e-02
-5.303417146205902100e-02
-2.538929879665374756e-02
2.216590195894241333e-02
-5.890533328056335449e-03
-5.858140997588634491e-03
6.154667213559150696e-02
-2.271104976534843445e-02
1.387231983244419098e-02
2.348706126213073730e-02
-4.559186752885580063e-03
5.904035270214080811e-02
-5.179151892662048340e-03
1.353570539504289627e-02
6.096247583627700806e-02
6.031114980578422546e-02
-3.279334306716918945e-02
-6.114120036363601685e-02
-7.150104269385337830e-03
4.698540270328521729e-02
-5.386332049965858459e-02
5.224999785423278809e-02
7.951728068292140961e-03
6.488150358200073242e-02
-3.563634678721427917e-02
1.761789619922637939e-02
-8.179762214422225952e-02
8.713081479072570801e-02
8.292995393276214600e-02
2.523803710937500000e-02
-7.872615754604339600e-02
-7.611548155546188354e-02
3.536151349544525146e-02
-5.879946053028106689e-03
4.456868022680282593e-02
7.104361802339553833e-02
4.876094311475753784e-02
-2.316437475383281708e-02
5.257293581962585449e-02
1.367767155170440674e-02
4.962252080440521240e-02
6.658546626567840576e-02
-5.402364581823348999e-02
1.753480732440948486e-02
-5.097624287009239197e-02
-5.410123243927955627e-02
3.817221522331237793e-02
-4.400163516402244568e-02
3.648361936211585999e-02
4.608355835080146790e-02
4.362414125353097916e-03
4.758082330226898193e-02
-1.875226572155952454e-02
7.010113447904586792e-02
2.711132168769836426e-03
2.547262981534004211e-02
-2.653198316693305969e-02
4.109653457999229431e-02
-5.584139004349708557e-02
-3.830648213624954224e-02
-6.505799479782581329e-03
-5.856149271130561829e-02
8.126376569271087646e-02
-3.457998484373092651e-02
4.712342470884323120e-02
-2.539120614528656006e-02
2.609498985111713409e-02
-7.508402317762374878e-02
-6.049484014511108398e-02
-4.110914841294288635e-02
-5.167552456259727478e-02
2.423270232975482941e-02
5.659030377864837646e-02
5.239002406597137451e-02
6.488662958145141602e-02
6.487675011157989502e-02
-3.589490801095962524e-02
-6.316595524549484253e-02
-3.223702311515808105e-03
-4.079952836036682129e-02
4.633335769176483154e-02
-7.451534271240234375e-02
-8.551031351089477539e-04
4.346027597784996033e-02
-7.533151656389236450e-02
-2.533386647701263428e-02
1.800054311752319336e-02
2.461412921547889709e-02
1.044607385993003845e-01
-8.269019424915313721e-03
4.633963573724031448e-03
7.317486405372619629e-02
3.627901896834373474e-02
1.718433201313018799e-02
5.133990198373794556e-03
-5.500975996255874634e-02
7.123462855815887451e-02
-6.347057223320007324e-02
7.285938598215579987e-03
4.734352231025695801e-02
2.204008400440216064e-03
-4.619668796658515930e-02
7.937690615653991699e-02
7.129156589508056641e-02
3.493954241275787354e-02
1.416030339896678925e-02
-1.444535795599222183e-02
-4.444387927651405334e-02
2.426199987530708313e-02
-3.435843857005238533e-03
-8.918338455259799957e-03
2.758999587967991829e-03
7.028423249721527100e-03
-1.121309697628021240e-01
5.359894782304763794e-02
5.054096505045890808e-02
4.081957787275314331e-02
-6.267975270748138428e-02
-8.440260589122772217e-02
7.959190011024475098e-02
5.942854657769203186e-02
8.794233202934265137e-03
6.920565664768218994e-02
6.661325693130493164e-02
-6.581425666809082031e-02
-4.504598677158355713e-03
-2.367064170539379120e-02
5.298988148570060730e-02
6.617587804794311523e-02
5.990825593471527100e-03
5.576242506504058838e-02
-8.316215127706527710e-02
5.901505053043365479e-02
7.650329172611236572e-02
9.902315586805343628e-02
-6.410635542124509811e-03
-1.669841818511486053e-02
-6.172300316393375397e-03
8.700482547283172607e-03
6.852918863296508789e-02
5.750036239624023438e-02
4.225685074925422668e-02
-3.900574892759323120e-02
-1.183333247900009155e-02
7.568625360727310181e-02
6.340410560369491577e-03
-2.040823176503181458e-02
-8.970819413661956787e-03
4.201848804950714111e-02
-4.042951390147209167e-03
7.108405232429504395e-02
-4.083402454853057861e-02
-3.725662827491760254e-02
-2.317231521010398865e-02
-1.511595398187637329e-02
9.893315285444259644e-02
-3.219472616910934448e-02
-8.778868243098258972e-03
-8.150082826614379883e-02
-4.064299166202545166e-02
-6.076519563794136047e-02
-4.560891538858413696e-03
7.613502442836761475e-03
6.745613366365432739e-02
-4.556334111839532852e-03
7.606947422027587891e-02
2.712433971464633942e-02
-1.845539361238479614e-02
5.929623544216156006e-02
-7.984132319688796997e-02
-1.230387110263109207e-02
5.253237485885620117e-02
5.687668919563293457e-02
-4.322789609432220459e-03
-4.763976112008094788e-02
7.188777625560760498e-02
7.479991763830184937e-02
-1.310614752583205700e-03
1.174671854823827744e-02
-3.093733079731464386e-02
7.366184890270233154e-02
-2.863620966672897339e-02
-5.293034017086029053e-03
3.327931091189384460e-02
-2.343550324440002441e-03
-4.554950166493654251e-03
-3.858061134815216064e-02
6.170707195997238159e-02
5.255665257573127747e-02
3.512663394212722778e-02
-5.251105129718780518e-02
4.888348281383514404e-02
7.331030070781707764e-02
4.466594755649566650e-02
-9.548844397068023682e-02
-7.137434184551239014e-02
-7.471492886543273926e-02
3.166428953409194946e-02
2.440091036260128021e-02
1.838187128305435181e-02
-2.954018115997314453e-02
9.395033121109008789e-03
3.488426655530929565e-02
3.871470689773559570e-04
-3.661558032035827637e-03
1.948604360222816467e-03
-7.971616089344024658e-02
5.431252717971801758e-02
7.613144814968109131e-03
4.782971367239952087e-02
5.841151997447013855e-02
3.467730432748794556e-02
-4.620951414108276367e-02
-9.487316012382507324e-02
9.180650115013122559e-03
-5.253479257225990295e-02
3.150721639394760132e-02
-1.074279844760894775e-02
-8.475243300199508667e-02
-2.087857201695442200e-02
4.560184851288795471e-02
7.797403633594512939e-02
2.224327437579631805e-02
2.754679322242736816e-02
-5.070768296718597412e-03
3.729514777660369873e-02
-1.747677288949489594e-02
-5.790346860885620117e-02
-2.026190282776951790e-03
-6.354834884405136108e-02
6.374236941337585449e-02
2.351752296090126038e-02
-1.640687137842178345e-02
5.489663779735565186e-02
-4.159478843212127686e-02
-6.063028704375028610e-03
-7.689132541418075562e-02
-4.836399108171463013e-02
3.825392574071884155e-02
7.234048843383789062e-02
4.773573577404022217e-02
6.513445079326629639e-02
-6.355080753564834595e-02
2.442143112421035767e-02
3.482367098331451416e-02
7.743711024522781372e-02
3.792441636323928833e-02
-1.144887506961822510e-02
-1.725356280803680420e-02
-5.058919638395309448e-02
-4.109738767147064209e-02
-4.202958196401596069e-02
2.559479698538780212e-02
-1.733517623506486416e-03
6.469528377056121826e-02
-3.927855938673019409e-02
7.070533931255340576e-03
4.996645078063011169e-02
-6.275612115859985352e-02
4.813612997531890869e-02
-4.739348962903022766e-02
-3.946439921855926514e-02
-7.118342071771621704e-02
-1.486048381775617599e-02
5.953998118638992310e-02
-5.528272688388824463e-02
5.381915718317031860e-02
4.735022783279418945e-03
-6.037171930074691772e-02
7.861444354057312012e-02
2.391266077756881714e-02
-8.852411061525344849e-02
1.226465404033660889e-02
6.971123814582824707e-02
3.950124233961105347e-02
5.209207534790039062e-02
1.327118277549743652e-02
-6.351091712713241577e-02
-4.212542250752449036e-02
-5.585521459579467773e-02
-6.010276079177856445e-02
-1.911442726850509644e-02
-5.724621564149856567e-02
3.155712038278579712e-02
2.636370807886123657e-02
2.301138453185558319e-02
-3.031068667769432068e-02
7.030071318149566650e-02
1.481079682707786560e-02
-4.343338310718536377e-03
8.974333293735980988e-03
-4.980570450425148010e-02
-2.141745761036872864e-02
4.538804292678833008e-02
1.544833928346633911e-02
-5.634040012955665588e-02
6.060883402824401855e-02
-1.290400326251983643e-02
1.108320150524377823e-02
3.116407990455627441e-02
-6.691841781139373779e-02
-6.987892836332321167e-02
3.375236690044403076e-02
5.310799181461334229e-02
-6.716274470090866089e-02
1.947074756026268005e-02
6.293497979640960693e-02
1.530967652797698975e-03
-5.088750272989273071e-02
2.001076750457286835e-02
5.763704422861337662e-03
-6.379663199186325073e-02
-8.080985397100448608e-02
-9.596584737300872803e-02
1.136336326599121094e-01
-4.624206945300102234e-02
-3.819824010133743286e-02
-1.345196366310119629e-02
6.165556982159614563e-02
-3.415511175990104675e-02
-2.601234242320060730e-02
7.181304693222045898e-02
-7.430426776409149170e-02
1.200959831476211548e-02
-9.224690496921539307e-03
-5.544618889689445496e-02
3.502732515335083008e-02
3.922102227807044983e-02
6.562066078186035156e-02
-4.888055473566055298e-02
-7.834501564502716064e-03
3.320465236902236938e-02
3.855882585048675537e-02
-2.125556394457817078e-02
7.577826082706451416e-02
-5.455893650650978088e-02
2.460645325481891632e-02
5.518873780965805054e-02
-1.702931523323059082e-02
-9.964399039745330811e-03
-1.589825749397277832e-02
-4.362433776259422302e-02
3.325622528791427612e-02
-4.516411945223808289e-02
-5.470195040106773376e-02
-2.797508426010608673e-02
8.434271812438964844e-02
5.514411628246307373e-02
6.022071093320846558e-02
-6.819182634353637695e-02
4.607071727514266968e-02
4.753926396369934082e-02
-2.852930687367916107e-02
-4.501925036311149597e-02
-6.565584242343902588e-02
-4.302509129047393799e-02
-1.833962649106979370e-02
2.634641900658607483e-02
1.499866694211959839e-02
4.454214125871658325e-02
-2.867967262864112854e-02
-4.232506453990936279e-02
-2.311976253986358643e-02
-1.633899658918380737e-02
-5.653177946805953979e-02
-3.945944085717201233e-02
3.411523625254631042e-02
-1.990834623575210571e-02
-6.907731294631958008e-02
3.444355726242065430e-02
-3.546693921089172363e-02
3.828495740890502930e-02
6.826137006282806396e-02
1.248792558908462524e-02
-4.431353509426116943e-02
7.297381758689880371e-03
-1.667464710772037506e-02
6.528634577989578247e-02
7.287999987602233887e-02
2.617901423946022987e-03
5.223087966442108154e-03
-1.646411418914794922e-02
-1.696533709764480591e-02
8.798678964376449585e-02
1.624795049428939819e-02
-3.612834587693214417e-02
1.324787735939025879e-03
5.230752751231193542e-02
-4.254794120788574219e-02
-2.321606874465942383e-02
7.408971339464187622e-02
7.799200713634490967e-03
8.876384235918521881e-03
-6.394688785076141357e-02
-3.204184770584106445e-02
1.064674556255340576e-02
2.544263005256652832e-02
5.522915720939636230e-02
7.486908137798309326e-02
-4.327073320746421814e-02
-7.975202798843383789e-02
2.339839190244674683e-02
1.081550866365432739e-02
3.022581338882446289e-02
2.746973931789398193e-02
-5.473698675632476807e-02
-3.648742288351058960e-02
3.381489217281341553e-02
-3.048788011074066162e-02
-1.678694784641265869e-02
3.946205228567123413e-02
-3.769498690962791443e-02
-4.385035112500190735e-02
-1.658499240875244141e-02
-8.125463128089904785e-02
-6.875842809677124023e-03
6.101459264755249023e-02
-6.225672364234924316e-02
4.758620262145996094e-02
-5.583534017205238342e-02
5.285212397575378418e-02
-5.872362479567527771e-02
5.556391179561614990e-02
-4.347626864910125732e-02
-2.460500597953796387e-02
-4.997159913182258606e-02
-5.880181863903999329e-02
-5.630009621381759644e-02
-2.464075759053230286e-02
-4.969089478254318237e-02
4.776981472969055176e-02
-4.661545902490615845e-02
2.334091812372207642e-02
2.939465641975402832e-02
6.574770808219909668e-02
7.096642255783081055e-02
1.803894340991973877e-02
4.777933657169342041e-02
-5.083827301859855652e-02
7.486641407012939453e-04
6.643460690975189209e-02
-3.692336380481719971e-03
1.642841845750808716e-02
-7.205010950565338135e-02
-4.291220381855964661e-02
3.854221105575561523e-02
-6.685414910316467285e-02
-7.103598862886428833e-02
3.032040596008300781e-02
4.056029021739959717e-02
5.194638669490814209e-02
8.057248592376708984e-02
7.104998826980590820e-02
1.377073675394058228e-02
3.438904881477355957e-02
-6.240005046129226685e-02
5.530372262001037598e-03
-1.342207193374633789e-02
6.386604905128479004e-02
2.998684346675872803e-02
-4.694719612598419189e-02
-2.099312841892242432e-03
3.831226378679275513e-02
-1.449042558670043945e-02
-7.912477105855941772e-02
-5.043953657150268555e-02
8.076226711273193359e-02
7.839933037757873535e-02
4.873825609683990479e-02
-4.309896007180213928e-02
4.974517226219177246e-02
-7.460439950227737427e-02
-3.918684646487236023e-02
7.763603329658508301e-02
1.208530366420745850e-02
-3.993977233767509460e-02
-1.581766456365585327e-02
7.012276351451873779e-02
-6.441026926040649414e-02
-6.264299154281616211e-04
-6.501108407974243164e-02
1.441106945276260376e-02
-2.514188736677169800e-02
-5.594378709793090820e-02
2.547655254602432251e-02
-6.448380649089813232e-02
4.914356768131256104e-02
3.027249872684478760e-02
-7.640183717012405396e-02
4.685695469379425049e-02
-7.325329631567001343e-02
-1.454094797372817993e-02
-5.430884659290313721e-02
8.792921900749206543e-03
-1.544955372810363770e-02
4.745967686176300049e-02
-5.901085212826728821e-02
-5.576723814010620117e-02
-1.201857626438140869e-02
-1.007117331027984619e-02
-3.276081010699272156e-02
-7.281474769115447998e-03
4.006862640380859375e-02
-2.316912636160850525e-02
3.365963697433471680e-03
5.420202016830444336e-02
3.322191536426544189e-02
6.404057145118713379e-02
2.135311067104339600e-02
-7.659611850976943970e-02
-5.771929770708084106e-02
5.224716663360595703e-02
4.991550743579864502e-02
-3.615908324718475342e-03
7.896722853183746338e-02
-4.226385429501533508e-02
-5.612920597195625305e-02
6.119285523891448975e-02
1.432421058416366577e-02
7.149973511695861816e-02
-4.968900978565216064e-02
-7.996742427349090576e-02
-8.162893354892730713e-03
-8.139800280332565308e-02
4.678280651569366455e-02
3.549667447805404663e-02
-5.798095464706420898e-02
1.639363169670104980e-02
-3.518575802445411682e-02
-7.112441956996917725e-02
-8.128735423088073730e-02
-7.677545398473739624e-02
2.183709293603897095e-02
-6.059102714061737061e-03
5.930842459201812744e-02
6.927476823329925537e-02
-3.889431804418563843e-02
-7.824364304542541504e-02
8.213967084884643555e-04
2.780039608478546143e-02
-6.019636988639831543e-03
-8.087895810604095459e-02
1.328991353511810303e-02
-5.809633061289787292e-02
6.455928087234497070e-03
-7.503348588943481445e-02
-7.397394627332687378e-02
-6.326203048229217529e-02
4.191744327545166016e-02
4.337207973003387451e-02
7.425819337368011475e-02
3.202372044324874878e-02
-5.276165157556533813e-02
-4.575617238879203796e-02
-2.888739109039306641e-03
2.965084463357925415e-02
7.341606914997100830e-02
-6.165952235460281372e-02
2.930895239114761353e-02
-1.259118318557739258e-02
5.482769012451171875e-02
-1.411119103431701660e-02
-6.900691241025924683e-02
-2.924684807658195496e-02
-6.127290427684783936e-02
5.891722440719604492e-02
-4.400894418358802795e-02
5.176931619644165039e-02
2.634942531585693359e-02
6.112134456634521484e-02
-1.692285388708114624e-02
-6.852018088102340698e-02
6.376396119594573975e-02
6.732533872127532959e-02
-1.252648234367370605e-02
1.724626123905181885e-02
-2.899654582142829895e-02
-3.292596340179443359e-02
1.457445323467254639e-02
1.996782422065734863e-02
5.004571378231048584e-02
8.728057146072387695e-03
1.198229938745498657e-02
-7.949715107679367065e-02
2.954556792974472046e-02
-2.971079573035240173e-02
2.384224534034729004e-02
6.096577644348144531e-02
-4.471354559063911438e-02
5.334328114986419678e-02
-6.545415520668029785e-02
-2.051208913326263428e-02
-5.457270145416259766e-02
-5.577352643013000488e-02
5.897423624992370605e-02
-1.453086733818054199e-03
-1.563257724046707153e-02
-5.394554883241653442e-02
3.494572639465332031e-02
-3.229617699980735779e-02
8.011268079280853271e-02
1.451656967401504517e-02
-2.600425854325294495e-02
3.186966478824615479e-02
7.967856526374816895e-02
2.134662866592407227e-02
-9.677208960056304932e-03
-2.108287066221237183e-02
-7.629588246345520020e-03
7.041157782077789307e-02
-4.837209731340408325e-02
-3.772462531924247742e-02
2.904838323593139648e-02
7.596966624259948730e-02
-7.658892869949340820e-02
-4.338031634688377380e-02
2.571491152048110962e-02
-4.581220448017120361e-03
1.971934735774993896e-02
-1.054506003856658936e-02
7.477389276027679443e-02
2.377526462078094482e-02
3.660287708044052124e-02
8.137311041355133057e-02
3.820442408323287964e-02
-1.953850686550140381e-02
-4.297531396150588989e-02
-6.332541257143020630e-02
6.108485162258148193e-02
-7.455144822597503662e-02
5.312249064445495605e-03
6.626684963703155518e-02
5.926391482353210449e-02
4.324987530708312988e-02
7.621663808822631836e-02
-6.909862160682678223e-02
1.689074188470840454e-02
2.577342092990875244e-02
7.791890203952789307e-02
-3.258363902568817139e-02
1.831404864788055420e-02
-2.359107136726379395e-03
-7.515726983547210693e-02
7.588858902454376221e-02
7.650284469127655029e-02
-5.074222385883331299e-02
1.956810802221298218e-02
6.084243953227996826e-02
-8.167061209678649902e-02
-5.683723092079162598e-02
-2.674353122711181641e-02
-7.663461565971374512e-02
-7.957997918128967285e-02
1.210698485374450684e-02
-2.975249662995338440e-02
-5.368458107113838196e-02
-1.995633170008659363e-02
-6.947039067745208740e-02
2.470871806144714355e-02
4.207854717969894409e-02
-7.269628345966339111e-02
-1.660698652267456055e-02
-5.864705890417098999e-02
8.153639733791351318e-02
6.126810610294342041e-02
-6.952224671840667725e-02
-3.718532994389533997e-02
5.545428395271301270e-02
6.020137667655944824e-02
-3.153847903013229370e-02
5.259819328784942627e-03
2.562776207923889160e-03
-3.285317122936248779e-02
5.921481549739837646e-02
2.981545031070709229e-02
3.302882611751556396e-02
5.042262375354766846e-02
7.806447148323059082e-02
-3.015244752168655396e-02
-7.997844368219375610e-02
-1.628619432449340820e-02
6.676889955997467041e-03
-5.026414990425109863e-03
1.263726502656936646e-02
3.567247092723846436e-02
6.755731999874114990e-02
-4.452022910118103027e-02
-5.004070326685905457e-02
-4.867912456393241882e-02
-6.520947068929672241e-02
-4.767552763223648071e-02
6.490123271942138672e-02
-5.317759513854980469e-02
-3.069573268294334412e-02
-5.668205767869949341e-02
2.480358630418777466e-02
5.939620733261108398e-02
-7.109820842742919922e-03
-7.397465407848358154e-02
7.560937106609344482e-02
3.704918920993804932e-02
-4.655592516064643860e-02
1.079510152339935303e-02
4.718889296054840088e-02
4.481680691242218018e-02
-5.208767950534820557e-03
3.082051873207092285e-03
2.181542664766311646e-02
7.530257105827331543e-03
-7.862000912427902222e-02
-2.910039573907852173e-02
-7.839582860469818115e-03
6.728959083557128906e-02
6.023271381855010986e-02
-2.637506276369094849e-02
-9.644448757171630859e-03
-2.870970964431762695e-02
5.697713792324066162e-02
-1.254320144653320312e-02
1.511700451374053955e-03
4.112370312213897705e-02
7.407495379447937012e-02
4.811960458755493164e-02
8.127523958683013916e-02
7.547588646411895752e-02
6.610885262489318848e-03
-6.948557496070861816e-02
-1.357021182775497437e-02
-3.806579113006591797e-02
8.370064198970794678e-03
-7.836100459098815918e-02
5.505806207656860352e-02
-5.366226658225059509e-02
-6.939590722322463989e-02
-2.651061117649078369e-02
3.359719365835189819e-02
-3.044334799051284790e-02
-5.551311001181602478e-02
2.637136727571487427e-02
-5.039962381124496460e-02
3.360676020383834839e-02
-5.579558387398719788e-02
-6.515160202980041504e-02
3.294401615858078003e-02
3.397841006517410278e-02
3.429576754570007324e-02
8.271932601928710938e-03
-1.224993914365768433e-02
7.319882512092590332e-02
7.581248879432678223e-02
8.067442476749420166e-02
-5.577981099486351013e-02
2.713270485401153564e-03
-4.568909481167793274e-02
-4.145760089159011841e-02
-1.294419169425964355e-03
4.744563996791839600e-02
1.634814590215682983e-02
-4.190485551953315735e-02
1.114062964916229248e-03
-6.609651446342468262e-02
-4.661889746785163879e-02
3.912197053432464600e-02
-6.031692028045654297e-04
6.633149087429046631e-02
6.821523606777191162e-02
-6.463458389043807983e-02
-1.239714026451110840e-02
8.028173446655273438e-02
-1.977878808975219727e-02
7.412727177143096924e-02
1.093715429306030273e-02
3.262089937925338745e-02
-5.721991509199142456e-02
5.201491713523864746e-02
-1.073776930570602417e-02
-1.953995972871780396e-02
-1.175307482481002808e-02
-6.695817410945892334e-02
1.303426921367645264e-02
-5.811572074890136719e-02
-6.504247337579727173e-02
-5.890940129756927490e-02
7.027059793472290039e-02
6.691431999206542969e-02
5.410839617252349854e-02
-8.161738514900207520e-04
2.624638378620147705e-02
-1.989956572651863098e-02
-6.450293958187103271e-02
-5.440503358840942383e-02
4.556737840175628662e-02
-4.416299611330032349e-02
4.122824221849441528e-02
7.319059967994689941e-02
-2.060299366712570190e-02
8.207739889621734619e-02
-2.099984139204025269e-02
1.004942506551742554e-02
7.344524562358856201e-02
-3.195422515273094177e-02
-6.068986654281616211e-02
-4.484609141945838928e-02
-4.043214395642280579e-02
-6.827513873577117920e-02
2.993609011173248291e-02
7.498735189437866211e-02
-7.331550121307373047e-02
3.746517002582550049e-02
6.220372021198272705e-02
5.819109082221984863e-02
-3.429213538765907288e-02
