-3.485336899757385254e-02
1.260068714618682861e-01
-1.919108182191848755e-01
-1.514795064926147461e+00
1.432116776704788208e-01
2.464096248149871826e-01
3.385682590305805206e-03
2.792893946170806885e-01
-4.692011862061917782e-04
-9.452647529542446136e-03
4.072679579257965088e-01
-3.969445228576660156e-01
-8.982399851083755493e-02
-9.923430085182189941e-01
-5.095427632331848145e-01
3.441271483898162842e-01
-6.934872269630432129e-01
8.281927555799484253e-02
-3.285218775272369385e-01
2.048325240612030029e-01
-8.496231436729431152e-01
-1.878162920475006104e-01
-7.825301289558410645e-01
-1.099130585789680481e-01
4.010305404663085938e-01
1.065447553992271423e-01
-3.777900338172912598e-01
-3.738277554512023926e-01
1.243042573332786560e-02
2.261690050363540649e-01
2.036351412534713745e-01
-9.827531129121780396e-02
8.312554657459259033e-02
-2.869771122932434082e-01
1.635705977678298950e-01
4.753915071487426758e-01
-7.054555416107177734e-01
1.281473692506551743e-02
-2.219568043947219849e-01
-5.612260699272155762e-01
3.538509309291839600e-01
-2.949071526527404785e-01
7.542489562183618546e-03
-7.405385971069335938e-01
3.707590997219085693e-01
2.706397771835327148e-01
-7.665785402059555054e-02
3.156596720218658447e-01
-7.903744280338287354e-02
-2.526550590991973877e-01
-1.470485925674438477e-01
2.389149665832519531e-01
-5.351163744926452637e-01
5.613614991307258606e-02
4.736357331275939941e-01
-5.105417370796203613e-01
2.339934706687927246e-01
2.140112966299057007e-01
2.925286591053009033e-01
-1.393195986747741699e-01
-2.471705228090286255e-01
2.173701971769332886e-01
-3.000615835189819336e-01
3.699064627289772034e-02
-1.374160349369049072e-01
-3.067191541194915771e-01
8.561643213033676147e-02
-6.573273986577987671e-02
2.176106870174407959e-01
-1.688315421342849731e-01
3.237266242504119873e-01
-5.629817023873329163e-02
2.882865667343139648e-01
-2.897486686706542969e-01
-7.480285167694091797e-01
9.295333921909332275e-02
1.818331032991409302e-01
1.227481290698051453e-01
-2.206724733114242554e-01
-7.576322555541992188e-02
-7.299530506134033203e-01
3.238898143172264099e-02
1.018022522330284119e-01
2.015158683061599731e-01
-5.974738001823425293e-01
-2.921770513057708740e-01
-9.024132974445819855e-03
3.279197216033935547e-01
-2.314345836639404297e-01
-2.856630384922027588e-01
-6.123962402343750000e-01
1.949681341648101807e-01
-2.065770775079727173e-01
2.484316825866699219e-01
-4.555914402008056641e-01
7.138103246688842773e-02
5.369755029678344727e-01
-3.111573457717895508e-01
-9.046166539192199707e-01
-5.464630722999572754e-01
-4.940788745880126953e-01
5.825212001800537109e-01
3.350782990455627441e-01
-9.559249281883239746e-01
6.269038468599319458e-02
2.283723652362823486e-01
1.494678854942321777e-01
-6.293027102947235107e-02
5.309454724192619324e-02
-1.001589074730873108e-01
3.135749101638793945e-01
1.508155316114425659e-01
-4.891745150089263916e-01
-2.757299840450286865e-01
-2.829544246196746826e-01
-4.069567024707794189e-01
2.078706324100494385e-01
1.741751283407211304e-02
7.118756324052810669e-02
7.114271284081041813e-04
2.013808041810989380e-01
2.129060775041580200e-01
1.067201569676399231e-01
-4.822669923305511475e-01
-2.421708405017852783e-01
-8.706555366516113281e-01
-7.252622246742248535e-01
-3.410221338272094727e-01
-3.010861277580261230e-01
-5.174849554896354675e-02
-5.253988504409790039e-01
1.571882143616676331e-02
2.496815845370292664e-02
-1.981609910726547241e-01
-4.027425050735473633e-01
-6.227422356605529785e-01
-2.442075461149215698e-01
-9.393982291221618652e-01
-1.034450978040695190e-01
-1.385564506053924561e-01
3.986112773418426514e-01
4.050171077251434326e-01
1.953271776437759399e-01
-2.499805092811584473e-01
1.901020109653472900e-01
-3.579455614089965820e-01
-3.515198826789855957e-01
-3.027161657810211182e-01
-1.317931413650512695e-01
1.773660778999328613e-01
3.806332349777221680e-01
2.264802530407905579e-02
-4.992029070854187012e-01
3.722785711288452148e-01
5.497172474861145020e-01
2.750319540500640869e-01
-6.671496629714965820e-01
-8.880703449249267578e-01
1.535033881664276123e-01
-1.743968427181243896e-01
-3.566708862781524658e-01
4.089767932891845703e-01
-4.220666736364364624e-02
-4.176013469696044922e-01
4.406801164150238037e-01
2.420949041843414307e-01
-1.325250506401062012e+00
-4.703284204006195068e-01
-5.166928172111511230e-01
1.553600728511810303e-01
-1.033543720841407776e-01
3.969380259513854980e-01
2.063892483711242676e-01
-1.242208242416381836e+00
5.684215426445007324e-01
1.444401443004608154e-01
-5.147460103034973145e-01
5.293887853622436523e-01
-1.208515465259552002e-01
-4.504517614841461182e-01
4.542571604251861572e-01
-4.505649805068969727e-01
-1.387487351894378662e-01
-3.198096156120300293e-01
-7.492448091506958008e-01
-6.665708869695663452e-02
-6.733747720718383789e-01
-4.772909730672836304e-02
-5.870284438133239746e-01
-3.305431604385375977e-01
6.346879899501800537e-02
-3.563323058187961578e-03
-5.019644275307655334e-02
-3.287785127758979797e-02
1.985393613576889038e-01
4.066877961158752441e-01
-6.592435240745544434e-01
1.778395920991897583e-01
-2.968243062496185303e-01
1.000791117548942566e-01
-2.828734517097473145e-01
3.608917295932769775e-01
-5.692112445831298828e-01
3.209849596023559570e-01
-5.926748365163803101e-02
4.870022237300872803e-01
2.920886874198913574e-01
4.662335664033889771e-02
-2.968078851699829102e-01
-3.816462457180023193e-01
-5.184979364275932312e-02
1.180371548980474472e-02
-1.978725641965866089e-01
-5.694194436073303223e-01
-5.062787532806396484e-01
-4.727276265621185303e-01
-6.432495266199111938e-02
2.288222163915634155e-01
-2.856979668140411377e-01
-3.680225312709808350e-01
5.051096677780151367e-01
1.313256919384002686e-01
-1.088818460702896118e-01
-6.135945916175842285e-01
-3.903636336326599121e-01
-4.041004553437232971e-02
-2.220506407320499420e-02
-1.014962345361709595e-01
3.392799496650695801e-01
5.193523131310939789e-03
2.779555022716522217e-01
-1.893648058176040649e-01
-5.475891828536987305e-01
-4.998716413974761963e-01
4.468531012535095215e-01
2.260141670703887939e-01
-3.336949348449707031e-01
-7.056569457054138184e-01
4.901102185249328613e-01
5.374912023544311523e-01
6.180011034011840820e-01
6.312965750694274902e-01
-1.967216879129409790e-01
-4.300583899021148682e-02
1.343540847301483154e-01
-3.232873678207397461e-01
-3.386771678924560547e-01
-1.031992435455322266e+00
-5.638629198074340820e-01
3.754050936549901962e-03
-4.040007889270782471e-01
-2.128400951623916626e-01
2.190360426902770996e-01
1.399551890790462494e-02
-8.508854508399963379e-01
-1.239038705825805664e+00
-9.054670333862304688e-01
-4.479865431785583496e-01
-2.003357261419296265e-01
3.033693432807922363e-01
5.519839376211166382e-02
1.197394430637359619e-01
-1.758763939142227173e-01
1.357633918523788452e-01
1.078844536095857620e-02
-7.315037846565246582e-01
2.653737664222717285e-01
1.925574690103530884e-01
-4.796688258647918701e-01
7.603151351213455200e-02
-4.872072041034698486e-01
-4.100247621536254883e-01
-5.856029987335205078e-01
2.614306211471557617e-01
1.880274862051010132e-01
-1.363935321569442749e-01
2.989748492836952209e-02
-4.890270829200744629e-01
2.919305860996246338e-01
-5.641355514526367188e-01
-2.756313383579254150e-01
-2.643337547779083252e-01
1.311071366071701050e-01
-5.026010274887084961e-01
2.534799575805664062e-01
-4.945712387561798096e-01
-7.225525975227355957e-01
1.790993362665176392e-01
-1.152604967355728149e-01
1.275514662265777588e-01
1.115584746003150940e-01
-1.554400175809860229e-01
-3.816936314105987549e-01
-3.022328019142150879e-01
4.443930387496948242e-01
3.555906713008880615e-01
-4.691123664379119873e-01
-1.155471727252006531e-01
-2.686820924282073975e-01
5.799251049757003784e-02
-1.683175563812255859e-01
-9.005609899759292603e-02
-4.829682409763336182e-01
-5.772262215614318848e-01
4.175984263420104980e-01
2.983475923538208008e-01
-2.379364371299743652e-01
-9.960352778434753418e-01
-3.267354369163513184e-01
5.646556615829467773e-02
3.685759305953979492e-01
7.637367397546768188e-02
-3.283892273902893066e-01
-2.395739778876304626e-02
3.878045678138732910e-01
-2.521204389631748199e-02
4.689393565058708191e-02
-4.771316889673471451e-03
7.476413995027542114e-02
-1.880540847778320312e-01
-6.420741081237792969e-01
6.884532421827316284e-02
-3.000368177890777588e-01
-1.039126962423324585e-01
-7.080091238021850586e-01
-4.587990343570709229e-01
4.094878137111663818e-01
-8.267523348331451416e-02
1.113679111003875732e-01
-2.506747543811798096e-01
-2.178166992962360382e-02
3.448135778307914734e-02
2.884774208068847656e-01
2.322240322828292847e-01
1.647901833057403564e-01
-5.981848835945129395e-01
-1.702214181423187256e-01
6.655274331569671631e-02
-5.410025715827941895e-01
-2.749384939670562744e-01
3.290016353130340576e-01
-3.062951862812042236e-01
3.779598176479339600e-01
4.744713008403778076e-02
4.017201438546180725e-02
-4.273807108402252197e-01
5.021403729915618896e-02
-4.661473035812377930e-01
-7.108969241380691528e-02
4.746098220348358154e-01
-1.632990121841430664e+00
-4.172192513942718506e-01
-2.866299450397491455e-01
5.130231976509094238e-01
-7.138255238533020020e-01
2.587649226188659668e-01
-4.257103502750396729e-01
1.884424500167369843e-02
-3.743183314800262451e-01
2.715634107589721680e-01
-1.366441607475280762e+00
-3.655215501785278320e-01
-2.573263943195343018e-01
5.266515612602233887e-01
4.055951535701751709e-01
-9.303725510835647583e-02
2.698837518692016602e-01
-6.337132304906845093e-02
-2.669632434844970703e-02
-3.556555509567260742e-01
-6.712552160024642944e-02
-4.869444072246551514e-01
-3.196493163704872131e-02
-1.192920878529548645e-01
5.404236540198326111e-02
4.094300270080566406e-01
-1.209564432501792908e-01
-1.441755145788192749e-01
2.142061293125152588e-01
5.744629353284835815e-02
-1.482385443523526192e-03
2.167306840419769287e-01
2.585876882076263428e-01
2.651813812553882599e-02
-7.104108929634094238e-01
-5.777007341384887695e-01
-9.382346868515014648e-01
5.791754648089408875e-02
-2.129632234573364258e-01
-2.376530468463897705e-01
-2.920610308647155762e-01
-2.655479125678539276e-02
1.392431706190109253e-01
1.776863932609558105e-01
2.058776617050170898e-01
1.326204985380172729e-01
-4.028638079762458801e-02
-5.271348170936107635e-03
5.126498341560363770e-01
1.339625567197799683e-02
-7.082448899745941162e-02
-3.267521262168884277e-01
3.497757390141487122e-02
-3.281695768237113953e-02
1.306530237197875977e-01
-2.297787219285964966e-01
-7.719201594591140747e-02
-5.294344201683998108e-02
1.147891208529472351e-02
-5.025293231010437012e-01
2.561012208461761475e-01
1.214970499277114868e-01
9.698861837387084961e-02
1.744695305824279785e-01
-1.474281996488571167e-01
2.293856889009475708e-01
-6.453096270561218262e-01
1.360218971967697144e-01
2.016551047563552856e-01
2.686330676078796387e-01
-5.064329504966735840e-02
-1.563775688409805298e-01
-2.432476878166198730e-01
-9.125474691390991211e-01
-2.884333431720733643e-01
-2.060047686100006104e-01
-1.902134120464324951e-01
1.463536471128463745e-01
-6.415306776762008667e-02
5.833905562758445740e-02
8.824067562818527222e-02
5.180601477622985840e-01
-2.453285902738571167e-01
-2.656477689743041992e-01
-2.426994889974594116e-01
7.396020740270614624e-02
1.567447930574417114e-01
-2.584072053432464600e-01
1.128309816122055054e-01
1.116437092423439026e-01
-8.825253248214721680e-01
1.711437013000249863e-03
-9.735196083784103394e-02
-6.167796850204467773e-01
-1.439085602760314941e-01
-7.266741394996643066e-01
-1.462007015943527222e-01
-2.252390235662460327e-01
-2.916905879974365234e-01
-3.678726404905319214e-02
3.118259310722351074e-01
-3.062847852706909180e-01
3.489415645599365234e-01
3.374385833740234375e-01
-1.098821997642517090e+00
1.655097305774688721e-01
-8.049304485321044922e-01
-2.821360826492309570e-01
2.725281119346618652e-01
3.456561565399169922e-01
-1.189341023564338684e-01
-5.825241208076477051e-01
1.735442131757736206e-02
6.748883426189422607e-02
2.825114428997039795e-01
4.539047777652740479e-01
-4.295299351215362549e-01
-1.875311732292175293e-01
-1.302514374256134033e-01
4.059718549251556396e-02
4.868876188993453979e-02
8.805131167173385620e-02
4.143164493143558502e-03
-7.699046730995178223e-01
-5.035405978560447693e-02
-5.159757286310195923e-02
-2.819370925426483154e-01
7.439856231212615967e-02
-9.076162427663803101e-02
5.357662215828895569e-02
-4.613897949457168579e-02
5.581264570355415344e-02
1.194208860397338867e-01
-2.817612886428833008e-01
4.758926033973693848e-01
-1.648310571908950806e-01
8.453002572059631348e-02
-1.128646254539489746e+00
1.029673442244529724e-01
-4.661552309989929199e-01
2.815460264682769775e-01
4.016171768307685852e-02
-2.476501762866973877e-01
5.354213342070579529e-02
3.857912495732307434e-02
1.257796436548233032e-01
-1.599792838096618652e-01
-1.576675325632095337e-01
-1.085201427340507507e-01
8.086650073528289795e-02
-1.798453032970428467e-01
-2.149144709110260010e-01
1.497582644224166870e-01
-1.041397545486688614e-02
-2.801256999373435974e-02
-5.739747732877731323e-02
1.210766136646270752e-01
-1.116983499377965927e-02
-1.024872735142707825e-01
8.390668034553527832e-02
7.787906378507614136e-02
7.879098877310752869e-03
-9.815037995576858521e-02
2.394592203199863434e-02
-1.743131130933761597e-01
-7.894845306873321533e-02
7.310905959457159042e-03
-2.242098599672317505e-01
-1.675819158554077148e-01
-1.331049501895904541e-01
3.910069167613983154e-01
1.308267861604690552e-01
-1.410049796104431152e-01
1.983921602368354797e-02
-3.948374837636947632e-02
2.269042730331420898e-01
2.034707814455032349e-01
-1.416293680667877197e-01
-2.021895647048950195e-01
-5.352261662483215332e-01
-7.195208668708801270e-01
-4.241461455821990967e-01
1.427781879901885986e-01
-3.383062481880187988e-01
-1.983718574047088623e-01
7.553061842918395996e-02
1.701826304197311401e-01
2.722695767879486084e-01
1.692767292261123657e-01
3.313845396041870117e-02
-5.502663850784301758e-01
-1.652018725872039795e-01
-3.745186328887939453e-01
-4.418537914752960205e-01
-1.808541864156723022e-01
4.486652836203575134e-02
-3.044828176498413086e-01
-1.988688558340072632e-01
-5.820502042770385742e-01
-8.023252338171005249e-02
-1.504489034414291382e-01
2.985427901148796082e-02
-6.810887455940246582e-01
4.635079503059387207e-01
-9.751809239387512207e-01
-7.702659368515014648e-01
4.138379991054534912e-01
3.507260680198669434e-01
2.512423992156982422e-01
3.561080098152160645e-01
-5.264533758163452148e-01
-3.884862363338470459e-01
-7.240856885910034180e-01
-3.409768044948577881e-01
-4.655208587646484375e-01
-5.793659687042236328e-01
2.793318331241607666e-01
3.636112436652183533e-02
-1.348610520362854004e-01
-9.981728345155715942e-02
1.257121283560991287e-02
-1.104562759399414062e+00
1.666203141212463379e-01
2.256331592798233032e-02
-2.455084323883056641e-01
1.355624198913574219e-01
2.622486650943756104e-01
5.212972685694694519e-02
-4.481512606143951416e-01
4.243073239922523499e-02
-6.102943420410156250e-01
-4.374410808086395264e-01
1.421904712915420532e-01
-5.062044598162174225e-03
2.954014241695404053e-01
1.715926080942153931e-01
-2.230800688266754150e-01
-1.539971381425857544e-01
-2.730297446250915527e-01
3.119583427906036377e-01
-4.008086323738098145e-01
-4.692699015140533447e-01
8.282350003719329834e-02
1.994882076978683472e-01
1.300877034664154053e-01
1.556673645973205566e-01
-3.090254962444305420e-01
1.654172539710998535e-01
9.188231825828552246e-02
-1.302066594362258911e-01
-9.101586788892745972e-02
-4.116243124008178711e-01
8.653065562248229980e-02
1.278291344642639160e-01
1.238015741109848022e-01
8.655112236738204956e-02
-3.061984479427337646e-02
-7.283637523651123047e-01
2.501958608627319336e-01
7.533951103687286377e-02
-2.552119828760623932e-02
9.658662974834442139e-02
-2.739994525909423828e-01
3.789002299308776855e-01
1.886935532093048096e-01
2.848295569419860840e-01
-2.144532464444637299e-02
-8.640047311782836914e-01
2.210490852594375610e-01
-1.024917885661125183e-02
2.696145772933959961e-01
8.895446546375751495e-03
-2.182769328355789185e-01
4.998648073524236679e-03
3.184081017971038818e-01
2.095598578453063965e-01
-9.086011350154876709e-02
7.135429978370666504e-02
-3.029120266437530518e-01
-1.785257905721664429e-01
1.573191285133361816e-01
1.791160255670547485e-01
-6.654781103134155273e-01
-1.342111676931381226e-01
-5.697072744369506836e-01
-9.271397590637207031e-01
1.227121129631996155e-01
-4.927530139684677124e-02
1.151368245482444763e-01
1.824478656053543091e-01
-9.796940535306930542e-02
3.485676646232604980e-01
6.416194140911102295e-02
-2.235066145658493042e-01
1.627487689256668091e-01
1.185348331928253174e-01
-4.086501896381378174e-01
-6.198154687881469727e-01
-2.143314629793167114e-01
-4.200529158115386963e-01
-1.096758723258972168e+00
3.244378566741943359e-01
2.909047901630401611e-01
-9.848856925964355469e-02
-1.832271963357925415e-01
-2.499433457851409912e-01
-2.176894247531890869e-01
-5.681931376457214355e-01
2.628027833998203278e-02
7.258229702711105347e-02
-1.949343271553516388e-02
1.119329556822776794e-01
-3.314153254032135010e-01
-1.519078910350799561e-01
-1.305060535669326782e-01
3.542326986789703369e-01
-5.720416903495788574e-01
3.938287496566772461e-01
1.682371050119400024e-01
2.509382367134094238e-01
2.634590864181518555e-01
1.335235312581062317e-02
-6.342437267303466797e-01
-1.232914552092552185e-01
9.290552884340286255e-02
4.042603075504302979e-02
3.025682568550109863e-01
-4.175056815147399902e-01
-1.656345650553703308e-02
2.366496771574020386e-01
-9.547557681798934937e-02
1.079119667410850525e-01
-8.095480501651763916e-02
-6.207216531038284302e-02
-7.994281649589538574e-01
-4.201770126819610596e-01
-5.177374482154846191e-01
1.839264184236526489e-01
1.071110069751739502e-01
-8.734691143035888672e-02
5.563254281878471375e-02
2.641224861145019531e-01
1.928728520870208740e-01
2.221632935106754303e-02
-1.688204258680343628e-01
1.690546795725822449e-02
-2.141437977552413940e-01
-7.614879012107849121e-01
2.736193537712097168e-01
-1.285285055637359619e-01
-4.778312444686889648e-01
-2.325934767723083496e-01
-4.514878690242767334e-01
-1.711349561810493469e-02
1.893270313739776611e-01
-1.127896070480346680e+00
-1.179306283593177795e-01
-1.091758832335472107e-01
5.893195271492004395e-01
-4.857883155345916748e-01
-9.801257401704788208e-02
3.522546291351318359e-01
3.727079331874847412e-01
1.513097882270812988e-01
-1.981500029563903809e+00
-5.906886458396911621e-01
-7.834053039550781250e-01
-5.914617776870727539e-01
-8.412310481071472168e-01
-4.087211787700653076e-01
6.474969387054443359e-01
1.705900579690933228e-01
-7.108469605445861816e-01
-5.438802018761634827e-02
-5.772609114646911621e-01
4.204179644584655762e-01
-1.114606335759162903e-01
-1.923897415399551392e-01
2.294848263263702393e-01
1.081584170460700989e-01
-3.418997526168823242e-01
1.353427022695541382e-01
-4.615195095539093018e-01
-7.803787589073181152e-01
-4.066513478755950928e-02
-3.897492289543151855e-01
-6.678825616836547852e-01
-3.503364026546478271e-01
-4.408309981226921082e-02
-4.201411902904510498e-01
3.128219544887542725e-01
1.531601697206497192e-01
9.150959551334381104e-02
2.024190723896026611e-01
-1.717234849929809570e-01
1.866786181926727295e-01
2.598087787628173828e-01
-2.583890855312347412e-01
-6.298656463623046875e-01
-2.829227745532989502e-01
-3.137949705123901367e-01
-2.565477788448333740e-01
-3.771964609622955322e-01
-1.272670626640319824e-01
-1.049502134323120117e+00
-4.200677573680877686e-01
-9.093575924634933472e-02
2.497919499874114990e-01
3.218878060579299927e-02
-8.492576479911804199e-01
-3.728652745485305786e-02
-9.140993356704711914e-01
3.841532468795776367e-01
1.183627694845199585e-01
-5.870201587677001953e-01
-1.422904524952173233e-02
-3.777411580085754395e-01
-6.564767956733703613e-01
2.257458567619323730e-01
-3.789524734020233154e-01
4.527897834777832031e-01
-6.971217393875122070e-01
3.109907209873199463e-01
-7.311246395111083984e-01
3.090335130691528320e-01
-4.338601827621459961e-01
6.706542521715164185e-02
-1.279966235160827637e-01
-5.137568712234497070e-02
2.073802500963211060e-01
2.508854866027832031e-01
5.325458571314811707e-02
7.382311224937438965e-01
-8.152813315391540527e-01
-6.127894520759582520e-01
-8.347505927085876465e-01
-7.598882168531417847e-02
-1.913475543260574341e-01
-3.094826452434062958e-02
1.122181564569473267e-01
-4.676576852798461914e-01
2.921406924724578857e-01
-6.525146961212158203e-02
-2.973659038543701172e-01
-3.716957867145538330e-01
1.262101233005523682e-01
-6.187722682952880859e-01
1.085494011640548706e-01
-1.619215607643127441e-01
1.835856586694717407e-01
-9.216210246086120605e-02
-1.502896309830248356e-03
-5.736481547355651855e-01
-5.556635931134223938e-02
2.221176922321319580e-01
1.525730937719345093e-01
-2.292687743902206421e-01
-1.749522536993026733e-01
2.259418070316314697e-01
3.496560156345367432e-01
1.405800431966781616e-01
-2.588251829147338867e-01
1.430345475673675537e-01
-9.162080883979797363e-01
-7.821188308298587799e-03
1.235671713948249817e-01
-2.108000218868255615e-01
1.817371882498264313e-02
-8.518176674842834473e-01
-8.728483915328979492e-01
-4.595818743109703064e-02
-2.629197239875793457e-01
2.441648691892623901e-01
2.291949391365051270e-01
1.101808175444602966e-01
-2.825955450534820557e-01
-1.800948083400726318e-01
-2.407258003950119019e-01
-6.108580827713012695e-01
-7.000512629747390747e-02
-1.336602866649627686e-01
1.016879267990589142e-02
1.968335658311843872e-01
1.276982873678207397e-01
1.252175075933337212e-03
1.432810723781585693e-02
-2.174738943576812744e-01
4.236073046922683716e-02
-1.008687391877174377e-01
1.778125390410423279e-02
1.688916832208633423e-01
1.893406808376312256e-01
-1.625004708766937256e-01
-1.448591351509094238e-01
1.125881820917129517e-01
-1.275001764297485352e-01
2.018902450799942017e-01
8.754795789718627930e-02
7.811171561479568481e-02
1.576567888259887695e-01
-2.038363516330718994e-01
-3.331728652119636536e-02
-1.070588380098342896e-01
8.741154521703720093e-02
-1.030965074896812439e-01
8.870934695005416870e-02
1.878374256193637848e-02
1.531816571950912476e-01
1.062422022223472595e-01
-8.396241664886474609e-01
-1.428287625312805176e-01
-1.135082721710205078e+00
1.192217692732810974e-01
9.250508248805999756e-02
-1.274268776178359985e-01
2.588956616818904877e-02
-7.012676447629928589e-02
9.528338909149169922e-02
-2.944947779178619385e-01
-6.072574257850646973e-01
2.744918689131736755e-03
-2.107215374708175659e-01
4.803519695997238159e-02
3.413549363613128662e-01
2.137202322483062744e-01
-4.534852877259254456e-02
-7.753701210021972656e-01
4.801406860351562500e-01
1.252398788928985596e-01
1.004375666379928589e-01
-2.716190181672573090e-02
-2.107611000537872314e-01
5.441800951957702637e-01
3.481491282582283020e-02
1.224751099944114685e-01
-3.821545541286468506e-01
1.621046960353851318e-01
5.990890786051750183e-02
-3.484442234039306641e-01
-1.474372446537017822e-01
-4.238333404064178467e-01
9.786342829465866089e-02
-4.422217011451721191e-01
1.062840893864631653e-01
7.890239357948303223e-02
4.783684611320495605e-01
-5.608056783676147461e-01
1.304751336574554443e-01
8.878838270902633667e-03
3.356419503688812256e-01
-3.355747163295745850e-01
-2.799623087048530579e-02
-6.338198781013488770e-01
3.431236743927001953e-01
4.321914166212081909e-02
-8.236085623502731323e-02
-8.677837997674942017e-02
-5.811169743537902832e-01
3.313501477241516113e-01
2.319395840167999268e-01
-4.162082374095916748e-01
3.979180455207824707e-01
-2.766353450715541840e-02
2.861306965351104736e-01
1.980550959706306458e-02
-8.365045785903930664e-01
1.938063185662031174e-03
-4.812862724065780640e-02
3.613909333944320679e-02
-1.687123067677021027e-02
1.670829951763153076e-01
7.593119889497756958e-02
-6.218184158205986023e-02
-1.219446733593940735e-01
3.341582790017127991e-02
-3.870190680027008057e-01
-3.719623386859893799e-02
1.287498772144317627e-01
1.891027539968490601e-01
-1.171586275100708008e+00
1.366690099239349365e-01
-9.224774315953254700e-03
4.957052692770957947e-02
1.318526566028594971e-01
-7.520323991775512695e-02
1.150787156075239182e-02
-3.040278851985931396e-01
1.940810382366180420e-01
-3.254254162311553955e-01
1.218226402997970581e-01
-1.070180535316467285e-01
-3.481052219867706299e-01
-6.807855963706970215e-01
-1.295855790376663208e-01
6.223554536700248718e-02
1.875785440206527710e-01
-5.282425135374069214e-02
3.245424032211303711e-01
-1.373052597045898438e-01
-4.004638642072677612e-02
-6.475834250450134277e-01
-1.738572120666503906e-01
-1.041734218597412109e+00
2.469995990395545959e-02
1.234253495931625366e-01
-2.096428126096725464e-01
-1.374096125364303589e-01
-6.312718987464904785e-01
-1.331508308649063110e-01
3.911126554012298584e-01
1.708269864320755005e-01
1.560013890266418457e-01
1.074505224823951721e-01
1.574422270059585571e-01
-7.848831415176391602e-01
7.369062304496765137e-02
-1.015211939811706543e+00
-1.449032127857208252e-01
2.646308159455657005e-03
3.307520449161529541e-01
-1.404798179864883423e-01
-6.765563040971755981e-02
6.745881587266921997e-02
-1.989585310220718384e-01
4.341667294502258301e-01
3.049551844596862793e-01
-2.413221299648284912e-01
-1.665262877941131592e-01
-2.235011607408523560e-01
-1.607830077409744263e-01
-3.438478410243988037e-01
-1.320652216672897339e-01
-2.120144665241241455e-01
1.666579395532608032e-02
2.612582445144653320e-01
-4.542143344879150391e-01
-9.702054411172866821e-02
-8.651156425476074219e-01
-2.229732573032379150e-01
-5.088095664978027344e-01
8.906776458024978638e-02
-2.298348993062973022e-01
-4.575794637203216553e-01
5.682796984910964966e-02
-8.065766692161560059e-01
-9.341729432344436646e-02
-7.796523571014404297e-01
-1.440319232642650604e-02
-1.199963539838790894e-01
1.396628171205520630e-01
7.418839633464813232e-02
2.532052695751190186e-01
-3.085786402225494385e-01
-8.931922167539596558e-02
-3.119636774063110352e-01
-3.649902343750000000e-01
-4.979744181036949158e-02
-2.218205630779266357e-01
-8.240509033203125000e-02
4.859138727188110352e-01
-2.544375061988830566e-01
4.536695778369903564e-01
8.404843807220458984e-01
-2.193979769945144653e-01
-8.310793638229370117e-01
-1.489890366792678833e-01
-6.907702982425689697e-02
-5.263260751962661743e-02
3.587820827960968018e-01
2.363149262964725494e-02
1.696253754198551178e-02
-5.551357269287109375e-01
3.191742300987243652e-01
6.307693719863891602e-01
-6.176404356956481934e-01
-1.542986929416656494e-01
-7.441959977149963379e-01
-7.522249817848205566e-01
5.776128917932510376e-02
-1.245316982269287109e+00
-7.557627558708190918e-01
-6.235472559928894043e-01
4.794989228248596191e-01
4.283502995967864990e-01
1.761035621166229248e-01
-3.670705258846282959e-01
-7.852411866188049316e-01
1.254269927740097046e-01
-4.559845328330993652e-01
2.873733341693878174e-01
-1.586988717317581177e-01
2.315168380737304688e-01
9.202104061841964722e-02
-8.698570728302001953e-02
-3.347952663898468018e-01
-4.324526190757751465e-01
2.747149169445037842e-01
7.019968330860137939e-02
1.015903055667877197e-01
1.451480388641357422e-01
-2.330616489052772522e-02
-5.094944238662719727e-01
-1.709722429513931274e-01
2.516435384750366211e-01
9.868136793375015259e-02
3.928927779197692871e-01
2.153204232454299927e-01
-8.307809382677078247e-02
-2.116628549993038177e-02
3.323818147182464600e-01
-2.321529947221279144e-02
-2.656117081642150879e-01
1.177080273628234863e-01
-5.964272618293762207e-01
-8.169525861740112305e-02
-7.979174256324768066e-01
2.046655714511871338e-01
-1.416870057582855225e-01
-3.647463023662567139e-01
-1.796392351388931274e-01
-2.202675342559814453e-01
8.445635437965393066e-02
-3.390162289142608643e-01
2.511898279190063477e-01
1.596405357122421265e-02
-5.135282874107360840e-01
2.902309894561767578e-01
-2.835178375244140625e-01
3.416129574179649353e-02
2.425332516431808472e-01
-2.564485967159271240e-01
-2.728831768035888672e-02
-3.300970420241355896e-02
1.267908513545989990e-01
8.158829808235168457e-02
-2.459051162004470825e-01
-1.697859168052673340e-01
1.424056738615036011e-01
2.350831478834152222e-01
1.789766550064086914e-01
9.422808885574340820e-03
-2.980996072292327881e-01
1.459564119577407837e-01
1.585620790719985962e-01
-5.953671336174011230e-01
-7.249389588832855225e-02
-1.322987079620361328e-01
-3.923502266407012939e-01
1.014070138335227966e-01
6.649801135063171387e-02
-3.578310012817382812e-01
-1.376361697912216187e-01
2.815234363079071045e-01
-2.488486282527446747e-02
6.489764153957366943e-02
-6.035965401679277420e-03
-3.867502808570861816e-01
-2.447278499603271484e-01
2.900595664978027344e-01
5.000927485525608063e-03
9.785439819097518921e-03
-4.273936152458190918e-01
-6.182438135147094727e-02
-1.211845427751541138e-01
2.267442941665649414e-01
6.107779219746589661e-02
2.752748727798461914e-01
-7.573930174112319946e-02
-6.438985466957092285e-02
-2.809056937694549561e-01
-4.440342485904693604e-01
1.892500370740890503e-01
-2.606102228164672852e-01
-3.376336395740509033e-01
-2.100017815828323364e-01
-4.075064063072204590e-01
-9.184043854475021362e-03
-8.053956180810928345e-02
2.355938404798507690e-01
3.673838675022125244e-01
3.745554387569427490e-02
-3.285071253776550293e-01
-4.063827693462371826e-01
-1.113930121064186096e-01
-8.105302602052688599e-02
-3.013294935226440430e-01
-5.370143651962280273e-01
2.755610048770904541e-01
-5.188866704702377319e-02
5.183097124099731445e-01
-2.233452722430229187e-02
5.270006060600280762e-01
1.657899916172027588e-01
3.772276043891906738e-01
-7.158184051513671875e-01
-3.190471231937408447e-01
2.640674412250518799e-01
-5.392262339591979980e-01
9.446411579847335815e-02
-1.695525273680686951e-02
3.733572959899902344e-01
-8.402753472328186035e-01
3.768336176872253418e-01
1.889716237783432007e-01
6.493975520133972168e-01
3.950164839625358582e-02
-2.001708745956420898e-01
-9.102740287780761719e-01
7.553725689649581909e-02
-2.953955233097076416e-01
1.543119549751281738e-01
-6.853380799293518066e-01
1.744823455810546875e-01
2.381194382905960083e-01
-8.101506829261779785e-01
-1.500910639762878418e+00
3.622866794466972351e-02
-1.021127477288246155e-01
3.128006458282470703e-01
2.929625473916530609e-02
1.688804775476455688e-01
6.570414453744888306e-02
2.954333126544952393e-01
-6.878814101219177246e-01
2.244902215898036957e-02
-1.553727220743894577e-02
-2.932865619659423828e-01
-2.099344739690423012e-03
1.290789693593978882e-01
2.533093094825744629e-01
5.959013476967811584e-03
4.692963957786560059e-01
1.528744995594024658e-01
-5.638602972030639648e-01
-2.240706235170364380e-02
1.229341402649879456e-01
-5.562171339988708496e-01
-3.153142333030700684e-01
5.289490222930908203e-01
-1.828373223543167114e-01
-3.035651743412017822e-01
-1.992767751216888428e-01
-8.875438570976257324e-01
-7.121792435646057129e-01
3.228115141391754150e-01
-5.029613971710205078e-01
5.914009734988212585e-02
4.231456667184829712e-02
1.224948912858963013e-01
8.799624443054199219e-02
1.017676517367362976e-01
-2.489484101533889771e-01
1.530221104621887207e-01
-9.915831685066223145e-02
-2.567354738712310791e-01
-4.819915294647216797e-01
-3.569702506065368652e-01
6.004808470606803894e-02
-1.623526215553283691e-01
2.805134952068328857e-01
2.941187620162963867e-01
4.853089526295661926e-02
2.158882170915603638e-01
4.253548383712768555e-02
1.788193285465240479e-01
-2.112592756748199463e-01
-2.183491736650466919e-01
-1.124556660652160645e+00
-6.335954666137695312e-01
-8.834156990051269531e-01
-6.028348207473754883e-01
-8.515654206275939941e-01
2.915592789649963379e-01
-2.370143979787826538e-01
-4.725530147552490234e-01
-1.092081367969512939e-01
-5.304038524627685547e-01
-3.786808848381042480e-01
1.554824113845825195e-01
4.387268722057342529e-01
-2.305349707603454590e-01
2.778813838958740234e-01
-5.066646337509155273e-01
-2.503462731838226318e-01
-7.837192416191101074e-01
2.631027996540069580e-01
-1.481196284294128418e-01
8.844486624002456665e-02
-1.105067878961563110e-01
-1.060382366180419922e+00
1.184670552611351013e-01
2.254318743944168091e-01
-1.313306987285614014e-01
-1.206318140029907227e-01
2.849131450057029724e-02
-2.836681306362152100e-01
3.676727712154388428e-01
-4.995854496955871582e-01
9.228345938026905060e-03
-1.798811256885528564e-01
-6.791633367538452148e-02
-1.692890971899032593e-01
-4.469809308648109436e-02
-7.658490538597106934e-02
6.379424035549163818e-02
3.715245127677917480e-01
-6.245616674423217773e-01
3.408426344394683838e-01
-3.444562256336212158e-01
1.307876855134963989e-01
5.915273427963256836e-01
1.399707198143005371e-01
-4.746558070182800293e-01
-5.212559700012207031e-01
-2.227675020694732666e-01
-2.500623464584350586e-01
-6.131126731634140015e-02
7.465869784355163574e-01
8.297710120677947998e-02
5.684091523289680481e-02
3.271485567092895508e-01
-5.047730803489685059e-01
-1.991934925317764282e-01
-4.764074683189392090e-01
1.516781598329544067e-01
8.750277757644653320e-02
-6.942835450172424316e-02
-7.306431233882904053e-02
1.084922701120376587e-01
-1.487331837415695190e-01
-3.396242558956146240e-01
2.140186727046966553e-01
-1.976181864738464355e-01
-9.183869361877441406e-01
4.123958647251129150e-01
3.778235316276550293e-01
3.988505601882934570e-01
1.378291100263595581e-01
-2.259602546691894531e-01
-9.254003316164016724e-02
-6.914821863174438477e-01
2.503222525119781494e-01
-6.949095726013183594e-01
-4.913114011287689209e-02
-2.339120022952556610e-02
-8.216127008199691772e-02
-4.599535167217254639e-01
1.637739688158035278e-01
-2.483636699616909027e-02
-4.798631072044372559e-01
-2.766010165214538574e-01
-3.943933844566345215e-01
1.755038797855377197e-01
-1.413046121597290039e-01
5.452594533562660217e-02
2.366783171892166138e-01
5.220652222633361816e-01
-5.616959333419799805e-01
3.335731476545333862e-02
1.032040193676948547e-01
-9.383017569780349731e-02
1.126628965139389038e-01
-1.207461282610893250e-01
-3.396028876304626465e-01
1.802430301904678345e-01
-3.308584392070770264e-01
2.550750970840454102e-01
-4.295857548713684082e-01
7.535658776760101318e-02
-7.792760729789733887e-01
-2.464006394147872925e-01
-3.472898602485656738e-01
3.271645605564117432e-01
1.582401841878890991e-01
5.161868333816528320e-01
-2.030621916055679321e-01
-6.231566891074180603e-02
-6.961011141538619995e-02
3.556291759014129639e-02
1.538279652595520020e-01
1.138665601611137390e-01
2.621685266494750977e-01
1.494432687759399414e-01
-1.844094693660736084e-02
-5.811812877655029297e-01
-3.973178565502166748e-01
-1.784174889326095581e-01
1.744578778743743896e-01
-2.132095396518707275e-01
-2.147659957408905029e-01
-2.366753071546554565e-01
-2.596130371093750000e-01
-2.055402100086212158e-01
-2.431462854146957397e-01
-4.187789261341094971e-01
-2.518512308597564697e-02
-3.747890889644622803e-01
-3.696651458740234375e-01
-5.099477767944335938e-01
-8.885734081268310547e-01
-5.488095283508300781e-01
-2.896795868873596191e-01
-1.448379456996917725e-01
1.726749092340469360e-01
-1.524643450975418091e-01
-1.243789196014404297e-01
-7.279165089130401611e-02
1.046904176473617554e-01
-2.938679456710815430e-01
-1.046555861830711365e-01
2.846457809209823608e-02
-1.784070581197738647e-01
2.179296165704727173e-01
-7.423907518386840820e-01
2.794161438941955566e-01
-1.553248912096023560e-01
7.275170832872390747e-02
4.002340510487556458e-02
5.819147825241088867e-02
1.886707246303558350e-01
-2.528837025165557861e-01
-1.573567837476730347e-01
-2.483784779906272888e-02
6.629972904920578003e-02
1.062668263912200928e-01
1.707448624074459076e-02
-4.593537747859954834e-02
-1.370373666286468506e-01
9.595566987991333008e-02
6.301962421275675297e-04
-2.688350081443786621e-01
3.456343337893486023e-02
-2.334491014480590820e-01
2.855953872203826904e-01
-6.223592758178710938e-01
-1.542507670819759369e-02
-4.389083087444305420e-01
1.619465202093124390e-01
-1.918729208409786224e-02
-7.859119176864624023e-01
-3.623265922069549561e-01
2.557656466960906982e-01
-1.475780457258224487e-01
1.259269863367080688e-01
-7.159110903739929199e-01
-2.040637731552124023e-01
-1.323478370904922485e-01
1.514914333820343018e-01
-5.233454704284667969e-02
1.974643319845199585e-01
7.270122766494750977e-01
-6.529673933982849121e-02
-3.974460065364837646e-02
-3.797171711921691895e-01
-1.787389367818832397e-01
-5.687745809555053711e-01
-7.636770606040954590e-01
-6.272640824317932129e-01
-4.969033598899841309e-01
2.939484268426895142e-02
-2.331815361976623535e-01
3.115907013416290283e-01
-9.915001988410949707e-01
-4.242333471775054932e-01
4.672590643167495728e-02
5.836461111903190613e-02
-3.888114392757415771e-01
2.015147358179092407e-01
1.532138586044311523e-01
4.981669485569000244e-01
5.652002692222595215e-01
-5.489073321223258972e-02
-2.652859501540660858e-02
-4.272067248821258545e-01
2.212241291999816895e-01
-3.555187210440635681e-02
1.487830467522144318e-02
-1.531681567430496216e-01
4.011021852493286133e-01
-3.212068974971771240e-01
-4.836372137069702148e-01
-3.166639208793640137e-01
-4.379110932350158691e-01
-1.162060126662254333e-01
-8.842231035232543945e-01
-2.153886407613754272e-01
-5.705932378768920898e-01
4.045201539993286133e-01
4.976046457886695862e-02
-2.224142849445343018e-01
1.392951756715774536e-01
4.544377028942108154e-01
4.060136973857879639e-01
3.879041671752929688e-01
-4.182076454162597656e-01
-2.264253199100494385e-01
-4.932327568531036377e-01
-3.711569905281066895e-01
-6.045270562171936035e-01
8.882365375757217407e-02
5.306671261787414551e-01
1.967768520116806030e-01
-1.165008768439292908e-01
1.383507400751113892e-01
2.162657380104064941e-01
-9.085210412740707397e-02
-4.269850552082061768e-01
-5.189744830131530762e-01
1.223799064755439758e-01
1.615327491890639067e-04
4.404097795486450195e-02
-3.315574228763580322e-01
2.631993591785430908e-01
1.295210719108581543e-01
-1.397533059120178223e+00
7.309384346008300781e-01
4.293829202651977539e-02
-5.294651389122009277e-01
2.693164646625518799e-01
1.145883500576019287e-01
1.500554531812667847e-01
-6.480825543403625488e-01
-5.427972674369812012e-01
-6.380875706672668457e-01
-1.440762635320425034e-02
8.406393527984619141e-01
-1.514637917280197144e-01
7.473208755254745483e-02
1.775264143943786621e-01
-1.069938950240612030e-02
1.918022185564041138e-01
6.638637185096740723e-02
2.084339857101440430e-01
-3.335972083732485771e-03
3.140921518206596375e-02
3.648482263088226318e-01
-3.055173456668853760e-01
-3.789610862731933594e-01
-1.131182014942169189e-01
-7.329065352678298950e-02
-5.290358066558837891e-01
-1.204672083258628845e-01
-7.954671382904052734e-01
-1.032275438308715820e+00
1.576658338308334351e-01
-1.174678802490234375e-01
3.785317540168762207e-01
2.523573338985443115e-01
2.814713120460510254e-01
7.185505330562591553e-02
-8.700440078973770142e-02
-1.666492521762847900e-01
2.196006327867507935e-01
-4.459507763385772705e-01
-3.200109601020812988e-01
-7.729216814041137695e-01
-7.319289259612560272e-03
5.850362405180931091e-02
1.471781879663467407e-01
4.552903771400451660e-02
-2.026207596063613892e-01
1.043998822569847107e-01
7.813692837953567505e-02
-2.464162707328796387e-01
-7.094935327768325806e-02
1.403103023767471313e-01
3.838237375020980835e-02
-6.318504214286804199e-01
4.391772747039794922e-01
1.807153970003128052e-01
-1.974158734083175659e-02
8.991741389036178589e-02
-3.464048728346824646e-02
-2.853102982044219971e-01
4.135597497224807739e-03
2.035293281078338623e-01
-9.175363183021545410e-01
-1.388300769031047821e-02
7.969807088375091553e-02
3.259953809902071953e-03
6.832050532102584839e-02
-1.958752609789371490e-02
-4.101127386093139648e-01
1.518207490444183350e-01
4.726268723607063293e-02
2.733940482139587402e-01
-2.035898268222808838e-01
-1.430126428604125977e-01
2.122155725955963135e-01
-2.554574012756347656e-01
-1.777083799242973328e-02
7.594570517539978027e-02
-2.774617671966552734e-01
-1.250990331172943115e-01
2.144429683685302734e-01
-4.210551381111145020e-01
1.170435249805450439e-01
1.174671202898025513e-01
1.023391857743263245e-01
-4.695231616497039795e-01
-8.048119395971298218e-02
2.190853357315063477e-01
-7.487492263317108154e-02
-2.377588748931884766e-01
-1.187269389629364014e-02
-3.439693450927734375e-01
3.986233100295066833e-02
2.796663939952850342e-01
-1.579446643590927124e-01
6.690277159214019775e-02
1.943821609020233154e-01
-1.353166401386260986e-01
1.791080832481384277e-01
-5.340232048183679581e-03
1.514462530612945557e-01
2.236910723149776459e-02
-1.828680485486984253e-01
-2.402940690517425537e-01
-1.524544060230255127e-01
-6.575945764780044556e-02
5.599759169854223728e-04
-1.941555738449096680e-01
2.827832698822021484e-01
3.103635609149932861e-01
3.909744918346405029e-01
-9.819125384092330933e-02
5.172635428607463837e-03
2.522372007369995117e-01
-1.623593121767044067e-01
1.125565692782402039e-01
-3.798727691173553467e-01
-4.870398640632629395e-01
-5.961270332336425781e-01
-8.448696136474609375e-01
-8.623232841491699219e-01
-2.308982908725738525e-01
8.737783133983612061e-02
-2.958069927990436554e-02
-1.360692232847213745e-01
-1.274092346429824829e-01
-1.370245069265365601e-01
-6.500587332993745804e-03
2.027931958436965942e-01
8.366698771715164185e-02
-1.373969614505767822e-01
-7.699727267026901245e-02
-7.517450302839279175e-02
-6.764759123325347900e-02
8.815474808216094971e-02
-1.339084357023239136e-01
-1.627448797225952148e-01
1.334732174873352051e-01
1.762540489435195923e-01
2.318081678822636604e-03
1.391019970178604126e-01
-8.579450100660324097e-02
9.417952038347721100e-03
-2.119055576622486115e-02
-5.673669651150703430e-02
-4.105097800493240356e-02
-1.739349067211151123e-01
1.189702004194259644e-01
-1.461687237024307251e-01
1.905277669429779053e-01
1.076396107673645020e-01
2.725484073162078857e-01
7.185854017734527588e-03
-9.054706096649169922e-01
-3.417823612689971924e-01
-1.658053845167160034e-01
-7.240312099456787109e-01
3.019924461841583252e-02
-7.896701991558074951e-02
-5.492438375949859619e-02
-1.797278821468353271e-01
3.734383732080459595e-02
2.288162708282470703e-01
4.383410140872001648e-02
3.555680438876152039e-02
3.329633772373199463e-01
1.960841864347457886e-01
-3.379789888858795166e-01
1.393835991621017456e-01
-9.621304869651794434e-01
9.531988203525543213e-02
-1.194893866777420044e-01
-8.665454983711242676e-01
1.779367774724960327e-01
-4.945353567600250244e-01
1.850639283657073975e-01
3.309407532215118408e-01
-3.083573579788208008e-01
4.630758762359619141e-01
2.244517952203750610e-01
-3.232604563236236572e-01
-2.613214254379272461e-01
2.660640180110931396e-01
-3.691488206386566162e-01
-2.118607312440872192e-01
3.440852463245391846e-01
-4.495519399642944336e-01
-2.024313509464263916e-01
-6.488782167434692383e-01
4.632881283760070801e-01
-2.302996665239334106e-01
-1.960442028939723969e-02
1.068936660885810852e-02
-3.803693130612373352e-02
-4.055602848529815674e-01
-7.379472851753234863e-01
-5.613486766815185547e-01
-9.210534095764160156e-01
-2.543592080473899841e-02
4.521392583847045898e-01
-6.059238314628601074e-01
2.097769826650619507e-01
-2.640890777111053467e-01
-2.586271166801452637e-01
5.204285979270935059e-01
2.978135049343109131e-01
9.653862565755844116e-02
-2.755523622035980225e-01
-5.932333469390869141e-01
-4.581218659877777100e-01
6.991354748606681824e-03
-4.600435197353363037e-01
-7.654280662536621094e-01
-2.425784245133399963e-02
-2.449422031641006470e-01
-2.650997340679168701e-01
2.857033610343933105e-01
1.978714913129806519e-01
4.083425700664520264e-01
-2.623186707496643066e-01
-4.812653362751007080e-01
2.942243032157421112e-02
1.697512459941208363e-03
-3.784318268299102783e-02
5.307194590568542480e-01
-4.284532368183135986e-01
9.476958215236663818e-02
-1.076408699154853821e-01
3.022712469100952148e-01
-1.510036438703536987e-01
-7.860351204872131348e-01
-1.495233774185180664e-01
-1.105005443096160889e-01
5.338145792484283447e-02
-3.305435776710510254e-01
-7.336289435625076294e-02
6.777966767549514771e-02
-2.731617391109466553e-01
1.558514088392257690e-01
1.671333312988281250e-01
-2.348032891750335693e-01
-1.453951299190521240e-01
1.015522181987762451e-01
7.637298852205276489e-02
-5.395522117614746094e-01
1.410265117883682251e-01
5.103983283042907715e-01
3.155975043773651123e-01
-1.427121311426162720e-01
2.524355053901672363e-01
4.003064334392547607e-01
-8.488471806049346924e-02
5.141701102256774902e-01
-1.242957115173339844e-01
1.138752773404121399e-01
-6.170551180839538574e-01
7.097786664962768555e-02
2.058856040239334106e-01
1.830058991909027100e-01
-1.588679999113082886e-01
-1.933937668800354004e-01
-3.986414074897766113e-01
3.356251493096351624e-02
9.700199961662292480e-02
-5.155314207077026367e-01
-1.165335103869438171e-01
1.227821782231330872e-01
-7.473669201135635376e-02
1.161018162965774536e-01
2.235508412122726440e-01
4.000787436962127686e-02
-1.645368933677673340e-01
9.590413421392440796e-02
-2.323785424232482910e-01
7.359080761671066284e-02
-8.858152478933334351e-02
-5.446175932884216309e-01
-7.765211462974548340e-01
3.972739353775978088e-02
-1.895652562379837036e-01
3.040685132145881653e-02
-3.258989751338958740e-01
-6.275660395622253418e-01
-9.926314949989318848e-01
-5.381330475211143494e-02
-8.083244413137435913e-02
2.756043076515197754e-01
6.128527224063873291e-03
-4.211878776550292969e-01
2.188899666070938110e-01
-1.471562311053276062e-02
8.080460876226425171e-02
-2.336187660694122314e-01
-8.051659464836120605e-01
-2.704066634178161621e-01
-4.464853405952453613e-01
6.873671710491180420e-02
4.635018408298492432e-01
1.246184110641479492e-01
3.342198729515075684e-01
-5.317591503262519836e-02
2.127498388290405273e-01
1.937453448772430420e-01
5.429984629154205322e-02
-9.058646857738494873e-02
2.192155420780181885e-01
-1.735160052776336670e-01
2.179596871137619019e-01
-4.775360226631164551e-02
-1.289125531911849976e-01
-2.145495861768722534e-01
2.270057648420333862e-01
-2.924845516681671143e-01
-3.639096915721893311e-01
4.996594190597534180e-01
3.238096535205841064e-01
1.457938700914382935e-01
-8.242554962635040283e-02
-1.721465736627578735e-01
-8.673842996358871460e-02
-4.060822427272796631e-01
-4.541025031358003616e-03
-8.156499862670898438e-01
-2.309592813253402710e-01
3.623797893524169922e-01
-1.787530481815338135e-01
-3.625997900962829590e-02
-4.933431446552276611e-01
-1.372599508613348007e-02
-6.498592495918273926e-01
2.918436527252197266e-01
-1.431811880320310593e-02
-6.686328649520874023e-01
-7.196436822414398193e-02
1.863087527453899384e-02
6.644197553396224976e-02
-1.666569337248802185e-02
2.119960486888885498e-01
-7.676043361425399780e-02
-1.502930670976638794e-01
-1.282569169998168945e-01
3.880746364593505859e-01
-1.087144136428833008e+00
-2.624862194061279297e-01
-5.085602402687072754e-01
2.730402350425720215e-01
-3.404771983623504639e-01
-6.244529411196708679e-02
1.764667686074972153e-03
8.090616762638092041e-02
-1.485618054866790771e-01
-4.090045094490051270e-01
3.165773451328277588e-01
3.240584731101989746e-01
5.291906371712684631e-02
8.189011365175247192e-02
-3.549911379814147949e-01
-5.323275923728942871e-01
-4.309143126010894775e-02
7.403289526700973511e-02
-1.277366727590560913e-01
-3.650064170360565186e-01
-4.927300810813903809e-01
-3.210252523422241211e-01
-3.901333734393119812e-02
5.139710903167724609e-01
-2.413276210427284241e-02
-3.117930293083190918e-01
5.733045339584350586e-01
-1.456945240497589111e-01
-1.928520798683166504e-01
-4.018867015838623047e-01
-2.256292700767517090e-01
-3.183517754077911377e-01
-4.055147171020507812e-01
4.347611367702484131e-01
3.108406066894531250e-01
1.208511739969253540e-01
7.363745570182800293e-02
2.494205087423324585e-01
1.498252153396606445e-01
8.016620576381683350e-02
-1.863754391670227051e-01
-1.249908879399299622e-01
-1.927952915430068970e-01
-3.405971825122833252e-01
-4.547562897205352783e-01
-9.329739212989807129e-01
-1.137182265520095825e-01
-8.339239284396171570e-03
1.591425687074661255e-01
-6.012743338942527771e-02
3.177511990070343018e-01
1.856795847415924072e-01
2.152258157730102539e-01
2.133962661027908325e-01
-7.465409040451049805e-01
-6.092202663421630859e-01
3.000739514827728271e-01
1.166780367493629456e-01
-2.335439920425415039e-01
3.690435886383056641e-01
1.565303504467010498e-01
-2.361823618412017822e-01
2.670765221118927002e-01
5.127978920936584473e-01
-8.607403188943862915e-02
-3.437416851520538330e-01
-7.488909363746643066e-01
1.119840657338500023e-03
-2.693615555763244629e-01
-2.854295074939727783e-01
-5.661511421203613281e-01
-1.062917828559875488e+00
-3.972440361976623535e-01
1.969404369592666626e-01
1.333991736173629761e-01
4.397750273346900940e-02
2.221530824899673462e-01
2.245460152626037598e-01
4.900190532207489014e-01
9.282004833221435547e-02
-4.189174771308898926e-01
-4.964316487312316895e-01
-6.100256443023681641e-01
-4.728100299835205078e-01
-5.029581785202026367e-01
1.527351289987564087e-01
7.808798551559448242e-01
2.098305672407150269e-01
-1.396404504776000977e-01
1.517411917448043823e-01
2.552222609519958496e-01
1.495591998100280762e-01
-1.968491822481155396e-01
-1.962950378656387329e-01
-3.774728775024414062e-01
-7.330636680126190186e-02
-3.851103484630584717e-01
3.574595153331756592e-01
1.707858964800834656e-02
8.192809671163558960e-02
-4.334279000759124756e-01
3.198575377464294434e-01
-8.312621712684631348e-02
-5.976145267486572266e-01
-3.242186903953552246e-01
-1.997149735689163208e-01
2.431764155626296997e-01
5.176071822643280029e-02
2.227930426597595215e-01
-4.542542621493339539e-02
-3.409729525446891785e-02
-9.893380105495452881e-03
2.067102044820785522e-01
8.748117685317993164e-01
-3.671533986926078796e-02
-5.825905501842498779e-02
2.054048478603363037e-01
-8.520143628120422363e-01
-1.577276550233364105e-02
-3.042264878749847412e-01
3.287543952465057373e-01
4.525474011898040771e-01
-3.655798733234405518e-01
-9.066295623779296875e-01
-3.863750100135803223e-01
-7.038584947586059570e-01
-6.454210877418518066e-01
-1.160031929612159729e-01
-5.244207382202148438e-01
6.369353085756301880e-02
2.027019299566745758e-02
-8.077410459518432617e-01
2.264199554920196533e-01
2.837034463882446289e-01
4.854392632842063904e-02
2.622162401676177979e-01
-4.602330327033996582e-01
-1.383654028177261353e-01
1.763963550329208374e-01
-7.515270113945007324e-01
-5.314290523529052734e-01
-7.358115315437316895e-01
-7.063064575195312500e-01
6.929550170898437500e-01
3.563362658023834229e-01
-2.165438383817672729e-01
1.745521277189254761e-01
-4.594692885875701904e-01
-3.376508951187133789e-01
-1.004668325185775757e-02
-3.354114713147282600e-03
1.479561720043420792e-02
1.278686374425888062e-01
6.489241719245910645e-01
-6.479038000106811523e-01
-2.262814491987228394e-01
-1.148228347301483154e-01
1.634972393512725830e-01
2.768123894929885864e-02
8.082078397274017334e-02
4.650872945785522461e-02
3.830203413963317871e-02
-4.307306408882141113e-01
2.570137977600097656e-01
4.032764956355094910e-02
-2.888215482234954834e-01
-9.245766699314117432e-02
-1.040200471878051758e+00
-4.073380529880523682e-01
-4.169777333736419678e-01
8.324194699525833130e-02
2.951326780021190643e-02
4.279143512248992920e-01
-8.652865886688232422e-02
2.816433645784854889e-02
-3.200515806674957275e-01
3.115702867507934570e-01
-4.507123827934265137e-01
-5.148872137069702148e-01
-6.092121005058288574e-01
-3.410169482231140137e-01
-3.439315035939216614e-02
-1.428748071193695068e-01
-1.135777011513710022e-01
3.053843379020690918e-01
1.026135385036468506e-01
3.446563184261322021e-01
1.131484210491180420e-01
4.535862430930137634e-02
-4.391165375709533691e-01
1.586740165948867798e-01
-1.057346582412719727e+00
-3.125604987144470215e-01
-2.243810445070266724e-01
2.290441244840621948e-01
-5.861630290746688843e-02
-2.735261023044586182e-01
1.198782846331596375e-01
-3.072568215429782867e-03
-2.041291818022727966e-02
2.883150875568389893e-01
8.381105959415435791e-02
-2.065417021512985229e-01
-5.246685072779655457e-02
2.580085396766662598e-01
-1.862523257732391357e-01
-9.670009464025497437e-02
-2.451440542936325073e-01
8.394981175661087036e-02
3.670419007539749146e-02
-1.440891623497009277e-01
-6.443952769041061401e-02
2.008781582117080688e-01
-2.261829227209091187e-01
-5.675001069903373718e-02
-1.581765264272689819e-01
-1.288760006427764893e-01
-4.124164208769798279e-02
1.160082891583442688e-01
-2.875773906707763672e-01
-3.580153882503509521e-01
-1.788115948438644409e-01
-2.644798159599304199e-01
-8.541701734066009521e-02
-1.727887429296970367e-02
-1.755438745021820068e-01
1.567345559597015381e-01
3.427311079576611519e-03
3.419150114059448242e-01
-1.582718938589096069e-01
-3.688433468341827393e-01
-1.938616037368774414e-01
-6.274666637182235718e-02
-7.300922274589538574e-02
-2.039728462696075439e-01
8.600365370512008667e-02
8.693260699510574341e-02
-5.439620614051818848e-01
3.118463754653930664e-01
-2.841360867023468018e-01
9.996952861547470093e-02
-1.209830164909362793e+00
1.560473889112472534e-01
-3.325873911380767822e-01
1.236144304275512695e-01
2.711820304393768311e-01
3.892600908875465393e-02
-2.253844738006591797e-01
-4.068492650985717773e-01
7.938161492347717285e-03
3.052853643894195557e-01
3.290472626686096191e-01
1.233934834599494934e-01
-5.153564363718032837e-02
1.927767693996429443e-01
-4.004468023777008057e-01
7.658174633979797363e-02
2.302644699811935425e-01
-8.593748807907104492e-01
-3.291986882686614990e-01
-6.062231659889221191e-01
-4.809126555919647217e-01
1.763404458761215210e-01
4.701947793364524841e-02
2.012168914079666138e-01
2.714144289493560791e-01
-2.394494116306304932e-01
2.765766084194183350e-01
2.718624426051974297e-03
-4.590926766395568848e-01
-7.626271843910217285e-01
-9.285695552825927734e-01
-1.041589379310607910e+00
2.097805589437484741e-01
1.370516866445541382e-01
1.347697526216506958e-01
-5.592387169599533081e-02
2.656778395175933838e-01
-2.429433763027191162e-01
-3.846289590001106262e-02
1.662467569112777710e-01
-5.605655312538146973e-01
2.789730429649353027e-01
-1.103391572833061218e-01
-6.559885740280151367e-01
3.601950407028198242e-01
-6.366525590419769287e-02
-1.444859653711318970e-01
1.740939170122146606e-02
2.301796227693557739e-01
2.354588657617568970e-01
3.809610307216644287e-01
-6.355522666126489639e-03
1.021855622529983521e-01
-3.436407744884490967e-01
2.048906311392784119e-02
1.299650818109512329e-01
-1.044524386525154114e-01
-6.094725131988525391e-01
4.974495172500610352e-01
-1.850043982267379761e-01
1.410117447376251221e-01
-5.028565526008605957e-01
3.165071830153465271e-03
-1.780488193035125732e-01
7.949147373437881470e-02
-9.533286690711975098e-01
-3.912202715873718262e-01
2.531990110874176025e-01
4.623082876205444336e-01
-9.228564053773880005e-02
-4.559040963649749756e-01
-4.972426891326904297e-01
8.203390240669250488e-01
-4.649104773998260498e-01
-1.489009708166122437e-01
-6.530032753944396973e-01
-7.969025522470474243e-02
-2.475505918264389038e-01
5.493883490562438965e-01
-7.290961742401123047e-01
-7.201319336891174316e-01
-1.140236496925354004e+00
8.200579136610031128e-02
-2.369463257491588593e-02
5.382029414176940918e-01
1.766963452100753784e-01
3.126905858516693115e-02
-3.205170035362243652e-01
1.469203680753707886e-01
-5.781130790710449219e-01
-3.796840608119964600e-01
-4.492275416851043701e-02
1.822866052389144897e-01
1.871325820684432983e-01
1.060610637068748474e-01
-6.884585618972778320e-01
-7.279522418975830078e-01
2.388798892498016357e-01
3.634436056017875671e-02
1.092224493622779846e-01
-4.514428973197937012e-01
1.393976211547851562e-01
-7.072694301605224609e-01
1.547659188508987427e-01
-1.613809615373611450e-01
1.008343622088432312e-01
3.530278801918029785e-01
-1.757552772760391235e-01
-8.408203721046447754e-03
2.302382290363311768e-01
1.424740403890609741e-01
-4.848840087652206421e-02
-1.710971468128263950e-03
-5.875892639160156250e-01
2.181444913148880005e-01
-9.509956091642379761e-02
1.834163069725036621e-01
-5.895379558205604553e-02
2.513009309768676758e-01
3.906710743904113770e-01
-1.484574675559997559e-01
1.678722500801086426e-01
-2.270575165748596191e-01
-2.390724122524261475e-01
-8.780466020107269287e-02
1.087423488497734070e-01
-8.129893685691058636e-04
6.410036981105804443e-02
1.389440596103668213e-01
-3.007706403732299805e-01
2.315521687269210815e-01
-4.980604350566864014e-02
-8.672099560499191284e-02
3.733477890491485596e-01
2.181222140789031982e-01
-6.774855405092239380e-02
2.845998704433441162e-01
5.110027790069580078e-01
-3.661761283874511719e-01
-7.238548398017883301e-01
-9.744490683078765869e-02
-3.686990439891815186e-01
1.011387854814529419e-01
-1.229177135974168777e-02
3.519978821277618408e-01
-5.562235116958618164e-01
-7.066604681313037872e-03
1.293643862009048462e-01
-8.707282692193984985e-02
-8.495701104402542114e-02
2.727402150630950928e-01
-6.632866859436035156e-01
2.392628639936447144e-01
-1.838983446359634399e-01
-1.035881787538528442e-01
-4.325327277183532715e-01
2.546560466289520264e-01
-2.038370668888092041e-01
-7.307236664928495884e-04
5.433984398841857910e-01
1.423277258872985840e-01
1.723607033491134644e-01
-2.979070544242858887e-01
-2.965223602950572968e-02
-1.230907291173934937e-01
-1.172300130128860474e-01
9.803750552237033844e-03
1.415181905031204224e-01
2.393086999654769897e-02
-3.483209908008575439e-01
-3.623121976852416992e-01
2.899994254112243652e-01
-5.096359252929687500e-01
2.590551376342773438e-01
2.706533968448638916e-01
7.652242481708526611e-02
9.303131955675780773e-04
-3.936746120452880859e-01
1.255822628736495972e-01
-8.119235634803771973e-01
1.416867077350616455e-01
2.758998274803161621e-01
-1.527677327394485474e-01
-6.193743944168090820e-01
-2.349877506494522095e-01
-3.024746775627136230e-01
5.244989991188049316e-01
2.443382143974304199e-01
6.941038370132446289e-02
6.191702093929052353e-03
2.647769153118133545e-01
-2.426597326993942261e-01
-8.687588572502136230e-02
5.117140710353851318e-02
-8.022732287645339966e-02
-7.289447635412216187e-02
2.219230383634567261e-01
-5.998650193214416504e-01
-2.158130109310150146e-01
-2.178095281124114990e-01
-5.618104338645935059e-01
2.060737162828445435e-01
1.917506456375122070e-01
3.827929263934493065e-03
1.051434222608804703e-02
-1.816912591457366943e-01
1.358767896890640259e-01
1.033496037125587463e-01
-6.125852465629577637e-01
1.079361736774444580e-01
2.286331355571746826e-01
2.722426354885101318e-01
2.696786262094974518e-02
-1.776898056268692017e-01
-2.560818493366241455e-01
-8.113811612129211426e-01
1.042437106370925903e-01
3.832080960273742676e-01
4.073457419872283936e-02
7.510646432638168335e-02
-1.681630760431289673e-01
2.791630923748016357e-01
-2.863982021808624268e-01
-7.839195728302001953e-01
8.143346011638641357e-02
-3.160097002983093262e-01
1.936732977628707886e-01
-9.510198235511779785e-01
-4.042771160602569580e-01
3.749060332775115967e-01
1.861220411956310272e-02
-1.603822559118270874e-01
-6.075122952461242676e-01
-1.399886757135391235e-01
-2.541702389717102051e-01
2.285497784614562988e-01
5.355414152145385742e-01
1.558039784431457520e-01
-7.081371545791625977e-01
9.537457674741744995e-02
-2.451503276824951172e-01
-8.991717547178268433e-02
-5.412927865982055664e-01
-2.268493026494979858e-01
3.463055938482284546e-02
-1.056326776742935181e-01
-2.747914493083953857e-01
1.938589811325073242e-01
-4.599602520465850830e-01
-4.282527565956115723e-01
-7.380530983209609985e-02
4.098226726055145264e-01
3.264892101287841797e-01
-2.786198258399963379e-01
-1.400487869977951050e-01
3.968967199325561523e-01
-2.450856864452362061e-01
-4.035280346870422363e-01
-3.485248237848281860e-02
-2.873854041099548340e-01
7.938972115516662598e-02
-4.336372315883636475e-01
-9.815600514411926270e-02
3.605844974517822266e-01
2.701342403888702393e-01
3.551888167858123779e-01
1.831236034631729126e-01
-5.285251140594482422e-01
-7.262756228446960449e-01
-6.485680490732192993e-02
-7.492751479148864746e-01
-2.898775935173034668e-01
6.242007017135620117e-03
-5.046395659446716309e-01
-1.368978023529052734e-01
-6.417337059974670410e-01
5.418603420257568359e-01
1.548755168914794922e-01
2.102423310279846191e-01
9.524133056402206421e-02
5.047401785850524902e-01
-3.351928889751434326e-01
-7.518823742866516113e-01
-1.781003177165985107e-01
-3.909283876419067383e-01
1.788655817508697510e-01
3.042330145835876465e-01
-1.559723019599914551e-01
9.327410906553268433e-02
3.145403861999511719e-01
8.900813758373260498e-02
-5.930269956588745117e-01
-5.562612414360046387e-01
-3.308411240577697754e-01
1.518208682537078857e-01
3.023262321949005127e-01
-5.136989355087280273e-01
2.663965523242950439e-01
2.684856355190277100e-01
3.175765275955200195e-01
-9.997767210006713867e-02
-1.218262836337089539e-01
1.170509830117225647e-01
7.801504433155059814e-02
3.125872910022735596e-01
-6.144437193870544434e-01
-2.250408828258514404e-01
-4.783291816711425781e-01
-1.358470439910888672e+00
-8.300436735153198242e-01
-3.685763776302337646e-01
4.815641343593597412e-01
2.906129062175750732e-01
-8.700659871101379395e-02
-1.095997691154479980e-01
-3.371878266334533691e-01
-5.967736989259719849e-02
-7.489847540855407715e-01
3.293964266777038574e-01
6.364630162715911865e-02
-6.475274562835693359e-01
3.015451729297637939e-01
-1.176837310194969177e-01
8.311903476715087891e-02
-1.452868878841400146e-01
-6.153489351272583008e-01
2.077717185020446777e-01
-3.744042217731475830e-01
2.974736690521240234e-02
-1.668906807899475098e-01
-1.990068703889846802e-01
-3.780738711357116699e-01
2.003220617771148682e-01
-2.285763621330261230e-02
-1.920947283506393433e-01
-2.970201373100280762e-01
1.067232992500066757e-02
-6.332289576530456543e-01
1.719312667846679688e-01
5.018180608749389648e-02
-9.045192971825599670e-03
2.675425708293914795e-01
-1.418853295035660267e-03
2.825368642807006836e-01
1.494256407022476196e-01
3.621555566787719727e-01
5.007541179656982422e-02
-4.389678239822387695e-01
-8.210132122039794922e-01
4.109623432159423828e-01
2.192332297563552856e-01
4.229661524295806885e-01
5.163831114768981934e-01
1.509289741516113281e-01
2.400580942630767822e-01
-1.267793923616409302e-01
4.163131490349769592e-02
-5.444937944412231445e-01
-1.006703615188598633e+00
-6.935356259346008301e-01
-2.397475540637969971e-01
-3.328122496604919434e-01
-2.612164020538330078e-01
2.221518903970718384e-01
3.661650121212005615e-01
-6.875261664390563965e-01
-9.074051976203918457e-01
-7.979782819747924805e-01
-4.720584675669670105e-02
-3.958396911621093750e-01
2.742331624031066895e-01
2.173580378293991089e-01
-1.423604488372802734e-01
1.262966096401214600e-01
4.687098413705825806e-02
2.476688176393508911e-01
2.069883644580841064e-01
-9.939830750226974487e-02
-8.560554981231689453e-01
1.229822859168052673e-01
2.479781657457351685e-01
-3.825806379318237305e-01
1.499861031770706177e-01
-6.800704002380371094e-01
-8.916929364204406738e-02
2.317574322223663330e-01
-5.169578790664672852e-01
-2.658647857606410980e-02
-3.330021500587463379e-01
2.638533413410186768e-01
2.200555056333541870e-01
-6.297823190689086914e-01
1.608288735151290894e-01
-9.407585859298706055e-01
8.710847795009613037e-02
-4.803795516490936279e-01
-4.398206472396850586e-01
4.229378104209899902e-01
7.880727201700210571e-02
-1.920054256916046143e-01
4.701837599277496338e-01
-6.395229101181030273e-01
-1.609595060348510742e+00
-3.492326140403747559e-01
-4.240595400333404541e-01
-3.424154520034790039e-01
-1.445311754941940308e-01
-5.675266981124877930e-01
4.416583105921745300e-02
-3.194495737552642822e-01
-3.044897019863128662e-01
4.240874052047729492e-01
4.349943995475769043e-01
1.398656219244003296e-01
1.113569643348455429e-02
-1.420988589525222778e-01
-3.312852084636688232e-01
-2.710488140583038330e-01
-8.785504102706909180e-01
-7.107697725296020508e-01
-4.205721020698547363e-01
-3.167489767074584961e-01
-6.555455923080444336e-02
4.739333391189575195e-01
-2.069924324750900269e-01
1.159311532974243164e-01
-5.786056518554687500e-01
2.311867922544479370e-01
3.261733055114746094e-01
2.275938987731933594e-01
4.356136918067932129e-01
1.054900661110877991e-01
1.650165021419525146e-01
4.217017814517021179e-02
2.862241566181182861e-01
-5.613778233528137207e-01
-2.157833725214004517e-01
-1.864560693502426147e-01
3.921900391578674316e-01
-1.653667390346527100e-01
-1.797526776790618896e-01
3.255030810832977295e-01
-1.158201456069946289e+00
-1.555370241403579712e-01
1.077544614672660828e-01
-5.856755375862121582e-01
-4.069202542304992676e-01
4.063786193728446960e-02
3.343867659568786621e-01
-7.964994311332702637e-01
-4.382202625274658203e-01
1.177761554718017578e-01
2.215614169836044312e-01
-9.995338320732116699e-01
-1.200493693351745605e+00
-1.257357150316238403e-01
-4.485163688659667969e-01
-4.417774379253387451e-01
1.583117097616195679e-01
-5.487910509109497070e-01
2.067724317312240601e-01
-5.324953794479370117e-01
7.035197317600250244e-02
1.657673716545104980e-01
3.017244860529899597e-03
1.874557137489318848e-01
-3.685110807418823242e-01
-5.811119079589843750e-01
5.024121999740600586e-01
6.131859421730041504e-01
-6.161654740571975708e-02
-5.416189432144165039e-01
-6.646382212638854980e-01
-1.327240467071533203e-01
7.823565392754971981e-04
-5.221718549728393555e-01
7.393395155668258667e-02
3.145704865455627441e-01
-3.601214289665222168e-01
-1.632694900035858154e-01
-4.421777129173278809e-01
-4.205580800771713257e-02
-5.017005801200866699e-01
-2.622620575129985809e-02
-4.048914462327957153e-02
2.185728698968887329e-01
2.929475903511047363e-01
-7.049320936203002930e-01
-4.042361676692962646e-01
-7.908683419227600098e-01
2.672692537307739258e-01
-7.791611552238464355e-01
5.403173565864562988e-01
-7.255986332893371582e-01
-1.513598263263702393e-01
-3.004448413848876953e-01
3.199139833450317383e-01
-8.545222878456115723e-01
2.461470216512680054e-01
3.574264347553253174e-01
2.869426012039184570e-01
-6.886326670646667480e-01
-6.123959422111511230e-01
-5.090546011924743652e-01
-2.911195456981658936e-01
-7.456106543540954590e-01
-1.935823321342468262e+00
-1.124467048794031143e-02
-1.918081939220428467e-01
1.201372146606445312e-01
6.307844519615173340e-01
-1.014127492904663086e+00
-2.660340368747711182e-01
-2.116246819496154785e-01
-3.851980268955230713e-01
-5.117387697100639343e-02
-8.967073261737823486e-02
-2.700748480856418610e-02
-6.438012123107910156e-01
3.033453971147537231e-02
3.955805301666259766e-01
4.137236177921295166e-01
7.902029752731323242e-01
-3.607089519500732422e-01
-9.208713173866271973e-01
3.219220042228698730e-01
-9.009277224540710449e-01
-5.646423101425170898e-01
-1.714120805263519287e-01
-5.388079285621643066e-01
5.275910720229148865e-02
-3.089796602725982666e-01
1.862494498491287231e-01
-4.112359508872032166e-02
-4.725835621356964111e-01
-1.037315502762794495e-01
3.877858221530914307e-01
-1.139671951532363892e-01
-4.495187699794769287e-01
-1.027895212173461914e+00
1.178434416651725769e-01
-3.130665719509124756e-01
5.110000967979431152e-01
2.538316547870635986e-01
-2.574778795242309570e-01
9.592556208372116089e-02
4.828949570655822754e-01
-7.470589280128479004e-01
1.545865386724472046e-01
3.838524818420410156e-01
-7.868357747793197632e-02
3.973315060138702393e-01
-2.871775031089782715e-01
